\data\
ngram 1=3171
ngram 2=8195
ngram 3=9286

\1-grams:
-3.9508257	<unk>	0
0	<s>	-1.861824
-1.0548445	</s>	0
-2.2576606	pour	-0.19436751
-3.8403492	travailler	-0.05294095
-2.493955	ils	-0.1135926
-2.2874334	se	-0.07114511
-3.8403492	promènent	-0.05294095
-3.555975	environ	-0.05294095
-3.0515306	trois	-0.075594276
-3.704677	cents	-0.05294095
-3.1157203	jours	-0.05294095
-2.2772808	par	-0.25306472
-3.8403492	an	-0.05294095
-3.8403492	consciencieusement	-0.05294095
-2.1870003	il	-0.13161297
-3.8403492	saupoudra	-0.05294095
-2.6065216	ses	-0.12204335
-3.704677	souliers	-0.05294095
-2.3660436	son	-0.0794874
-3.8403492	pantalon	-0.05294095
-3.8403492	gilet	-0.05294095
-2.5108044	sa	-0.062505215
-3.8403492	veste	-0.05294095
-1.8156738	les	-0.11589458
-3.8403492	marins	-0.05294095
-2.790413	étaient	-0.05294095
-3.1910708	autour	-0.25176525
-1.3804405	de	-0.22351225
-2.6065216	leur	-0.05294095
-3.8403492	table	-0.05294095
-2.195229	au	-0.08391775
-3.704677	café	-0.05294095
-3.8403492	glacier	-0.05294095
-2.1480436	ne	-0.1216387
-3.8403492	provoquait	-0.05294095
-3.555975	d’ailleurs	-0.05294095
-3.8403492	l’attention	-0.05294095
-3.8403492	d’aucun	-0.05294095
-1.8871051	des	-0.071221955
-3.8403492	mangeurs	-0.05294095
-2.4777348	je	-0.10680185
-2.5108044	vous	-0.07856286
-3.8403492	admire	-0.05294095
-1.6901098	et	-0.18815584
-3.8403492	aime	-0.05294095
-3.8403492	m’aurez	-0.05294095
-2.9460895	quand	-0.130404
-3.8403492	voudrez	-0.05294095
-3.0515306	maintenant	-0.075594276
-2.0311491	que	-0.22086097
-3.704677	sais	-0.05294095
-2.585616	tout	-0.15649095
-2.3539042	ce	-0.20949183
-2.7294793	là	-0.06478654
-2.1406546	est	-0.13855085
-3.704677	sacré	-0.05294095
-2.8613129	moi	-0.16239333
-1.7887902	le	-0.12975661
-3.704677	garçon	-0.05294095
-1.9726436	du	-0.12797008
-3.8403492	restaurant	-0.05294095
-3.704677	finit	-0.16572244
-2.2978292	plus	-0.11737817
-2.901636	faire	-0.08027027
-3.704677	attention	-0.05294095
-1.8087952	à	-0.1483051
-3.397926	votre	-0.05294095
-3.704677	commande	-0.05294095
-2.6516178	nous	-0.06064951
-3.8403492	expliqua	-0.05294095
-3.8403492	qu’alors	-0.05294095
-2.105486	en	-0.07920757
-3.397926	sortit	-0.09460813
-3.1157203	toutes	-0.2440546
-3.555975	maisons	-0.10568094
-2.7294793	c’est	-0.09766702
-3.8403492	bonnement	-0.05294095
-3.8403492	incroyable	-0.05294095
-3.8403492	dirigea	-0.05294095
-2.901636	vers	-0.3301296
-1.9531823	la	-0.12971477
-3.397926	porte	-0.10568094
-2.060593	un	-0.09959044
-3.8403492	petit	-0.05294095
-3.555975	succès	-0.05294095
-3.8403492	douane	-0.05294095
-3.8403492	précède	-0.05294095
-3.1157203	toujours	-0.075594276
-3.397926	grand	-0.05294095
-3.2822974	coup	-0.09460813
-3.704677	père	-0.12478708
-2.0485747	dans	-0.40265122
-3.704677	miroir	-0.05294095
-3.8403492	parole	-0.05294095
-3.704677	révèle	-0.05294095
-2.6760528	comme	-0.112829186
-3.8403492	essentiellement	-0.05294095
-3.8403492	dépourvue	-0.05294095
-3.555975	sens	-0.12478708
-3.0515306	où	-0.05294095
-2.5283341	tous	-0.38779622
-3.1157203	hommes	-0.14450997
-3.704677	l’intérieur	-0.12478708
-3.8403492	navires	-0.05294095
-3.1910708	viennent	-0.08738
-3.704677	entendre	-0.16572244
-3.704677	musique	-0.16572244
-3.8403492	ledit	-0.05294095
-3.1910708	commandant	-0.05294095
-3.704677	tourna	-0.05294095
-3.704677	talons	-0.05294095
-3.397926	immédiatement	-0.05294095
-3.555975	mit	-0.05294095
-3.8403492	courir	-0.05294095
-3.8403492	fragment	-0.05294095
-3.704677	charbon	-0.05294095
-3.8403492	cristallisé	-0.05294095
-2.008952	pas	-0.17536242
-3.397926	autre	-0.05294095
-3.1910708	chose	-0.15021244
-2.901636	si	-0.076964356
-2.585616	cette	-0.07138662
-3.704677	mort	-0.05294095
-2.8244176	avait	-0.05294095
-3.704677	décrit	-0.05294095
-3.704677	cercle	-0.05294095
-3.704677	entier	-0.05294095
-3.704677	j’aurais	-0.05294095
-3.1157203	été	-0.05294095
-3.8403492	certainement	-0.05294095
-3.704677	tué	-0.05294095
-3.8403492	surprise	-0.05294095
-3.8403492	profond	-0.05294095
-3.8403492	soi	-0.05294095
-3.397926	chacun	-0.05294095
-3.8403492	perçoit	-0.05294095
-3.397926	qu’une	-0.05294095
-3.704677	naissance	-0.05294095
-3.8403492	déclare	-0.05294095
-3.8403492	avance	-0.05294095
-3.397926	donc	-0.05294095
-3.8403492	bâton	-0.05294095
-3.8403492	touche	-0.05294095
-3.8403492	tâtonnant	-0.05294095
-3.8403492	caillou	-0.05294095
-2.901636	ces	-0.06166514
-3.397926	gens	-0.08738
-2.2978292	qui	-0.08843388
-3.704677	n'étaient	-0.05294095
-3.8403492	simples	-0.05294095
-3.8403492	présences	-0.05294095
-3.8403492	petites	-0.05294095
-3.704677	villes	-0.05294095
-3.397926	nuit	-0.05294095
-3.704677	signal	-0.05294095
-3.8403492	repos	-0.05294095
-3.704677	nul	-0.05294095
-3.704677	doute	-0.05294095
-3.8403492	chute	-0.05294095
-3.8403492	n’ait	-0.05294095
-3.1910708	produit	-0.08738
-2.1870003	une	-0.10021544
-3.704677	grande	-0.05294095
-3.704677	flamme	-0.05294095
-3.8403492	subite	-0.05294095
-3.397926	eux	-0.10568094
-3.8403492	l’année	-0.05294095
-3.2822974	n’est	-0.21715923
-3.8403492	divisée	-0.05294095
-3.704677	semaines	-0.05294095
-3.397926	mois	-0.05294095
-2.701945	mais	-0.15597145
-3.8403492	voyages	-0.05294095
-3.8403492	acte	-0.05294095
-3.704677	l’on	-0.05294095
-3.8403492	n’accomplit	-0.05294095
-2.585616	avec	-0.16725586
-3.8403492	allures	-0.05294095
-3.8403492	empoisonnent	-0.05294095
-3.8403492	travaillent	-0.05294095
-2.5283341	aux	-0.05294095
-3.555975	matières	-0.12478708
-3.704677	périssables	-0.16572244
-3.704677	possible	-0.05294095
-3.1910708	sous	-0.08738
-3.8403492	microscope	-0.05294095
-3.8403492	infusoires	-0.05294095
-3.8403492	fassent	-0.05294095
-2.585616	même	-0.089947656
-3.8403492	verrez	-0.05294095
-3.8403492	orients	-0.05294095
-3.8403492	proche	-0.05294095
-3.8403492	l’extrême	-0.05294095
-3.555975	croire	-0.05294095
-3.2822974	qu’ils	-0.09460813
-2.8244176	ont	-0.06411993
-2.8613129	fait	-0.05294098
-3.555975	chemin	-0.05294095
-3.8403492	pied	-0.05294095
-3.704677	depuis	-0.05294095
-3.704677	village	-0.05294095
-3.8403492	natal	-0.05294095
-3.555975	regard	-0.05294095
-2.8613129	sans	-0.05294095
-3.8403492	éclat	-0.05294095
-3.8403492	maintien	-0.05294095
-3.8403492	timide	-0.05294095
-3.704677	uns	-0.05294095
-2.3785322	sont	-0.12521785
-3.8403492	fête	-0.05294095
-3.704677	autres	-0.05294098
-3.397926	n’en	-0.05294095
-3.8403492	l'oeuvre	-0.05294095
-3.8403492	piere	-0.05294095
-3.704677	marie	-0.05294095
-3.8403492	curie	-0.05294095
-3.555975	continue	-0.05294095
-3.8403492	banquier	-0.05294095
-3.8403492	san	-0.05294095
-3.8403492	francisco	-0.05294095
-3.8403492	mène	-0.05294095
-3.555975	mission	-0.05294095
-3.8403492	économique	-0.05294095
-3.555975	chine	-0.10568094
-3.8403492	séquence	-0.05294095
-3.8403492	changea	-0.05294095
-3.8403492	d'angle	-0.05294095
-3.555975	vit	-0.05294095
-3.704677	jolie	-0.16572244
-3.8403492	brune	-0.05294095
-3.8403492	approcher	-0.05294095
-3.8403492	tristesse	-0.05294095
-3.8403492	environnante	-0.05294095
-3.8403492	née	-0.05294095
-2.6065216	était	-0.0882421
-3.8403492	survenu	-0.05294095
-2.26736	sur	-0.30713487
-3.704677	planète	-0.16572244
-3.0515306	elle	-0.092680775
-3.8403492	spécifia	-0.05294095
-3.704677	réponse	-0.05294095
-3.8403492	erronée	-0.05294095
-3.704677	signifiait	-0.05294095
-3.8403492	immédiate	-0.05294095
-3.704677	rapide	-0.05294095
-2.9460895	on	-0.06478654
-3.8403492	allume	-0.05294095
-3.397926	quatre	-0.05294095
-3.8403492	énormes	-0.05294095
-3.8403492	bûchers	-0.05294095
-3.8403492	sapin	-0.05294095
-3.8403492	préparés	-0.05294095
-3.8403492	l’aviation	-0.05294095
-3.2822974	s’en	-0.05294095
-3.397926	va	-0.05294095
-3.8403492	remplacée	-0.05294095
-3.8403492	pilonnage	-0.05294095
-3.8403492	méticuleux	-0.05294095
-3.8403492	l’artillerie	-0.05294095
-2.901636	j’ai	-0.05294095
-3.8403492	cru	-0.05294095
-2.8613129	qu’il	-0.11232529
-3.704677	allait	-0.05294095
-3.704677	sortir	-0.05294095
-3.8403492	centimètre	-0.05294095
-3.8403492	mesurer	-0.05294095
-3.8403492	longueur	-0.05294095
-3.8403492	exacte	-0.05294095
-2.901636	mon	-0.05294098
-3.8403492	nez	-0.05294095
-3.704677	ensuite	-0.05294095
-3.704677	journaux	-0.05294095
-3.8403492	hollandais	-0.05294095
-3.2822974	puis	-0.15021244
-3.704677	allemands	-0.05294095
-3.8403492	hongrois	-0.05294095
-2.9460895	me	-0.07138662
-3.8403492	répondit	-0.05294095
-3.2822974	face	-0.08738
-3.397926	chien	-0.20846276
-3.704677	l’instant	-0.05294095
-3.555975	te	-0.05294095
-3.555975	vois	-0.05294095
-3.0515306	ma	-0.05294095
-3.8403492	distraction	-0.05294095
-3.8403492	unique	-0.05294095
-3.8403492	prennent	-0.05294095
-3.555975	effet	-0.05294095
-3.704677	qu'après	-0.05294095
-3.1157203	avoir	-0.12377715
-3.8403492	ratifiés	-0.05294095
-2.8613129	ou	-0.05294095
-3.8403492	approuvés	-0.05294095
-3.8403492	bizarre	-0.05294095
-3.8403492	situations	-0.05294095
-3.704677	ait	-0.05294095
-3.397926	jamais	-0.05294095
-3.2822974	eu	-0.05294095
-3.704677	affronter	-0.05294095
-3.397926	voici	-0.05294095
-3.8403492	thé	-0.05294095
-3.8403492	arrive	-0.05294095
-3.2822974	droit	-0.11376658
-3.8403492	ceylan	-0.05294095
-3.8403492	infusé	-0.05294095
-3.704677	avions	-0.05294095
-3.8403492	voies	-0.05294095
-3.8403492	d'eau	-0.05294095
-3.8403492	qu'	-0.05294095
-3.704677	heureusement	-0.05294095
-3.397926	nos	-0.05294095
-3.8403492	pompes	-0.05294095
-3.8403492	franchissaient	-0.05294095
-3.704677	phare	-0.05294095
-3.1157203	français	-0.07851084
-3.8403492	balaye	-0.05294095
-3.704677	lumière	-0.05294095
-3.397926	cinq	-0.05294095
-3.8403492	parties	-0.05294095
-3.704677	terre	-0.08738
-3.8403492	l'allemagne	-0.05294095
-3.8403492	luxembourg	-0.05294095
-3.8403492	belgique	-0.05294095
-3.1910708	pays	-0.05294095
-3.397926	bas	-0.10568094
-3.8403492	l'italie	-0.05294095
-3.8403492	s'y	-0.05294095
-3.8403492	rallièrent	-0.05294095
-3.555975	premier	-0.07851084
-3.8403492	étage	-0.05294095
-3.555975	chambre	-0.05294095
-3.555975	d’hommes	-0.05294095
-3.397926	douze	-0.05294095
-3.704677	lits	-0.05294095
-3.704677	j’étais	-0.05294095
-3.8403492	domine	-0.05294095
-3.8403492	bassin	-0.05294095
-3.8403492	joliette	-0.05294095
-3.8403492	mot	-0.05294095
-3.8403492	camarade	-0.05294095
-3.555975	passa	-0.05294095
-3.8403492	fugitivement	-0.05294095
-3.704677	esprit	-0.10568094
-3.555975	disparut	-0.05294095
-3.8403492	façons	-0.05294095
-3.1910708	doit	-0.10568094
-2.9460895	être	-0.05294095
-3.2822974	raison	-0.05294095
-3.704677	ça	-0.05294095
-3.397926	première	-0.05294095
-3.555975	rencontre	-0.05294095
-3.8403492	fus	-0.05294095
-3.704677	saisi	-0.16572244
-3.8403492	dégoût	-0.05294095
-3.8403492	d’épouvante	-0.05294095
-3.8403492	êtes	-0.05294095
-3.8403492	illustre	-0.05294095
-3.555975	monsieur	-0.05294095
-3.555975	ports	-0.05294095
-3.704677	cependant	-0.05294095
-3.2822974	peu	-0.07851084
-3.8403492	d’étrangers	-0.05294095
-3.397926	n’ont	-0.10568094
-3.555975	davantage	-0.12478708
-3.555975	entendu	-0.05294095
-3.397926	parler	-0.05294095
-3.8403492	devise	-0.05294095
-3.704677	république	-0.05294095
-3.8403492	liberté	-0.05294095
-3.8403492	égalité	-0.05294095
-3.8403492	fraternité	-0.05294095
-3.2822974	dit	-0.08738
-3.397926	idée	-0.17258403
-3.555975	ville	-0.05294095
-3.8403492	merveilleuse	-0.05294095
-3.8403492	avez	-0.05294095
-2.6516178	deux	-0.08550309
-3.8403492	villégiature	-0.05294095
-3.8403492	prorogation	-0.05294095
-3.8403492	delà	-0.05294095
-2.8613129	peut	-0.18926844
-3.704677	autorisée	-0.05294095
-3.704677	parlement	-0.08738
-3.8403492	carton	-0.05294095
-3.8403492	vert	-0.05294095
-3.8403492	désignerait	-0.05294095
-3.2822974	ceux	-0.17258403
-3.704677	embarquent	-0.05294095
-3.704677	noir	-0.05294095
-3.704677	débarquent	-0.16572244
-3.704677	président	-0.10568094
-2.7294793	a	-0.07856286
-3.1910708	grâce	-0.25176525
-3.704677	toute	-0.05294095
-3.8403492	l’italie	-0.05294095
-3.397926	derrière	-0.10568094
-3.8403492	gênes	-0.05294095
-3.8403492	pousser	-0.05294095
-2.9460895	wilson	-0.08463171
-3.1910708	déjà	-0.05294095
-3.8403492	emboîté	-0.05294095
-3.8403492	soldat	-0.05294095
-3.8403492	retourna	-0.05294095
-3.8403492	brusquement	-0.05294095
-3.8403492	réfléchit	-0.05294095
-3.8403492	trêve	-0.05294095
-3.2822974	aucun	-0.05294095
-3.8403492	parvient	-0.05294095
-3.8403492	troubler	-0.05294095
-3.704677	instant	-0.09460813
-3.704677	tard	-0.12478708
-3.8403492	d'entre	-0.05294095
-3.0515306	elles	-0.10392229
-2.5656707	lui	-0.07686343
-3.704677	soir	-0.082289726
-3.8403492	organisé	-0.05294095
-3.8403492	honneur	-0.05294095
-3.704677	séance	-0.05294095
-3.704677	cinéma	-0.05294095
-3.8403492	savait	-0.05294095
-3.8403492	comment	-0.05294095
-3.8403492	exprimer	-0.05294095
-3.704677	reconnaissance	-0.05294095
-3.555975	joie	-0.12478708
-3.397926	jeune	-0.05294095
-3.555975	fille	-0.05294095
-3.704677	entra	-0.05294095
-3.8403492	portant	-0.05294095
-3.8403492	plateau	-0.05294095
-3.8403492	chargé	-0.05294095
-3.1910708	d’un	-0.05294095
-3.8403492	verre	-0.05294095
-3.704677	savez	-0.05294095
-2.5466013	bien	-0.060094353
-3.2822974	passe	-0.05294095
-3.8403492	sort	-0.05294095
-3.8403492	routine	-0.05294095
-3.1910708	celui	-0.17061248
-3.555975	connaît	-0.05294095
-3.0515306	vie	-0.16106877
-3.8403492	fasse	-0.05294095
-3.8403492	dégoûté	-0.05294095
-2.995618	vont	-0.075594276
-3.0515306	jusqu’à	-0.05294095
-3.555975	minuit	-0.05294095
-3.704677	savent	-0.05294095
-3.555975	deuxième	-0.05294095
-3.555975	message	-0.12478708
-3.8403492	devez	-0.05294095
-3.397926	france	-0.06411993
-3.8403492	élu	-0.05294095
-3.1157203	ans	-0.075594276
-3.555975	suffrage	-0.05294095
-3.8403492	universel	-0.05294095
-3.555975	direct	-0.12478708
-3.8403492	considérer	-0.05294095
-3.8403492	cirés	-0.05294095
-3.704677	messieurs	-0.05294095
-3.2822974	doivent	-0.09460813
-3.555975	marcher	-0.12478708
-3.397926	pourtant	-0.05294095
-3.8403492	torturés	-0.05294095
-3.8403492	vides	-0.05294095
-3.8403492	résistance	-0.05294095
-3.704677	l’est	-0.05294095
-2.8244176	encore	-0.06478654
-2.995618	y	-0.05294095
-3.704677	apprend	-0.16572244
-3.8403492	négocier	-0.05294095
-3.704677	connaître	-0.05294095
-3.704677	d'autres	-0.05294095
-3.8403492	usages	-0.05294095
-3.555975	porta	-0.05294095
-3.555975	main	-0.05294095
-3.704677	front	-0.05294095
-3.8403492	douleur	-0.05294095
-3.8403492	s'intensifia	-0.05294095
-3.8403492	perfusé	-0.05294095
-3.704677	combinaison	-0.05294095
-3.704677	nourri	-0.05294095
-3.8403492	adapté	-0.05294095
-3.704677	rythme	-0.05294095
-3.555975	gouvernement	-0.08738
-3.8403492	détermine	-0.05294095
-3.704677	conduit	-0.05294095
-3.704677	politique	-0.05294095
-3.704677	nation	-0.05294095
-3.704677	métier	-0.05294095
-3.397926	seulement	-0.05294095
-3.8403492	l’exercent	-0.05294095
-3.8403492	lorsqu’ils	-0.05294095
-3.704677	promener	-0.05294095
-2.9460895	elias	-0.05294095
-3.8403492	pénétra	-0.05294095
-3.8403492	quartiers	-0.05294095
-3.8403492	s'affaissa	-0.05294095
-3.0515306	devant	-0.05294095
-3.8403492	ordinateur	-0.05294095
-3.8403492	poussent	-0.05294095
-3.8403492	liturgiquement	-0.05294095
-3.8403492	longs	-0.05294095
-3.8403492	gémissements	-0.05294095
-3.8403492	trouva	-0.05294095
-2.7588782	après	-0.05294095
-3.8403492	l’aurore	-0.05294095
-3.0515306	non	-0.09065058
-3.704677	loin	-0.05294095
-3.8403492	carrières	-0.05294095
-3.704677	sable	-0.05294095
-3.704677	fallut	-0.05294095
-3.8403492	certain	-0.05294095
-3.2822974	temps	-0.05294095
-3.8403492	ménager	-0.05294095
-3.8403492	canadiens	-0.05294095
-3.2822974	tu	-0.09065058
-3.8403492	étais	-0.05294095
-3.555975	sûr	-0.12478708
-3.397926	passer	-0.05294095
-3.8403492	postérité	-0.05294095
-3.2822974	ton	-0.05294095
-3.8403492	théâtre	-0.05294095
-3.8403492	femmes	-0.05294095
-3.8403492	internent	-0.05294095
-3.8403492	troquent	-0.05294095
-3.8403492	vols	-0.05294095
-3.555975	conseil	-0.12478708
-3.8403492	constitutionnel	-0.05294095
-3.8403492	consulté	-0.05294095
-3.704677	sujet	-0.05294095
-3.704677	s’agit	-0.05294095
-2.9460895	d’une	-0.05294095
-3.704677	espèce	-0.05294095
-3.8403492	d’individus	-0.05294095
-3.8403492	l’amérique	-0.05294095
-3.704677	sud	-0.12478708
-3.555975	passé	-0.05294095
-3.8403492	défilait	-0.05294095
-3.397926	nouveau	-0.05294095
-3.2822974	yeux	-0.082289726
-3.8403492	privé	-0.05294095
-3.8403492	substance	-0.05294095
-3.704677	selon	-0.05294095
-3.8403492	guaranis	-0.05294095
-3.8403492	n’y	-0.05294095
-3.8403492	création	-0.05294095
-3.8403492	j’éprouvai	-0.05294095
-3.8403492	difficulté	-0.05294095
-3.8403492	reprendre	-0.05294095
-2.995618	mes	-0.05294095
-3.8403492	investigations	-0.05294095
-3.8403492	abstraites	-0.05294095
-3.8403492	photographie	-0.05294095
-3.8403492	contrarie	-0.05294095
-3.8403492	inclinations	-0.05294095
-3.704677	nature	-0.05294095
-3.8403492	habillé	-0.05294095
-3.8403492	chinoise	-0.05294095
-3.8403492	camisole	-0.05294095
-3.8403492	robe	-0.05294095
-3.8403492	pantoufles	-0.05294095
-3.8403492	respecter	-0.05294095
-3.8403492	principes	-0.05294095
-3.8403492	souveraineté	-0.05294095
-3.2822974	nationale	-0.14157088
-3.8403492	démocratie	-0.05294095
-3.8403492	nomades	-0.05294095
-3.704677	arabes	-0.05294095
-3.8403492	syriens	-0.05294095
-3.8403492	espagnols	-0.05294095
-3.8403492	belges	-0.05294095
-3.8403492	italiens	-0.05294095
-3.8403492	s'appuiera	-0.05294095
-3.8403492	tendances	-0.05294095
-3.8403492	existent	-0.05294095
-3.8403492	introduire	-0.05294095
-3.8403492	régularité	-0.05294095
-3.8403492	devons	-0.05294095
-3.8403492	craindre	-0.05294095
-3.8403492	évolutions	-0.05294095
-3.1910708	monde	-0.10328455
-3.704677	croyez	-0.05294095
-3.2822974	n’a	-0.17258403
-3.8403492	fini	-0.05294095
-3.8403492	d’étonner	-0.05294095
-3.8403492	travaux	-0.05294095
-3.8403492	antérieurs	-0.05294095
-3.704677	pierre	-0.05294095
-3.8403492	étrangers	-0.05294095
-3.2822974	choix	-0.15021244
-3.704677	compatriotes	-0.05294095
-3.8403492	calmés	-0.05294095
-3.8403492	cherchent	-0.05294095
-3.704677	bateaux	-0.05294095
-3.8403492	rivage	-0.05294095
-3.8403492	casinos	-0.05294095
-3.397926	avaient	-0.05294095
-3.8403492	atterri	-0.05294095
-3.8403492	proximité	-0.05294095
-3.8403492	l'endroit	-0.05294095
-3.555975	aurait	-0.05294095
-3.704677	dû	-0.05294095
-3.8403492	trouver	-0.05294095
-3.8403492	capitale	-0.05294095
-3.704677	singulier	-0.05294095
-3.2822974	rendez	-0.497603
-3.397926	personne	-0.10568094
-3.8403492	tire	-0.05294095
-3.555975	mer	-0.07851084
-3.704677	pousse	-0.05294095
-3.8403492	futur	-0.05294095
-3.704677	marchait	-0.16572244
-3.8403492	couloir	-0.05294095
-3.8403492	principal	-0.05294095
-3.8403492	détendu	-0.05294095
-3.8403492	entravés	-0.05294095
-3.1157203	entre	-0.082289726
-3.8403492	caisses	-0.05294095
-3.8403492	raisin	-0.05294095
-3.704677	boîtes	-0.05294095
-3.8403492	d’ananas	-0.05294095
-3.8403492	aura	-0.05294095
-3.8403492	mangé	-0.05294095
-3.8403492	oranges	-0.05294095
-3.704677	caisse	-0.05294095
-3.8403492	servira	-0.05294095
-3.704677	valise	-0.16572244
-3.704677	scrutin	-0.05294095
-3.704677	ouvert	-0.05294095
-3.8403492	convocation	-0.05294095
-3.8403492	agenouillé	-0.05294095
-3.8403492	identificateur	-0.05294095
-3.8403492	rétinien	-0.05294095
-3.704677	véritable	-0.05294095
-3.8403492	tonnerre	-0.05294095
-3.704677	j’accuse	-0.05294095
-3.704677	l'est	-0.05294095
-3.2822974	d'un	-0.05294095
-3.704677	titre	-0.05294095
-3.8403492	qu’est	-0.05294095
-3.8403492	l’accomplissement	-0.05294095
-3.8403492	final	-0.05294095
-3.8403492	miracle	-0.05294095
-3.8403492	s’abrite	-0.05294095
-3.8403492	vague	-0.05294095
-3.8403492	faubourg	-0.05294095
-3.1157203	moins	-0.05294095
-3.8403492	retiré	-0.05294095
-3.8403492	maritime	-0.05294095
-3.8403492	l’enjeu	-0.05294095
-3.8403492	paix	-0.05294095
-3.704677	sécurité	-0.05294095
-3.704677	malheureux	-0.05294095
-3.8403492	écrivain	-0.05294095
-3.8403492	imposteur	-0.05294095
-3.8403492	l’intensité	-0.05294095
-3.8403492	lumineuse	-0.05294095
-3.8403492	diminua	-0.05294095
-3.8403492	projecteur	-0.05294095
-3.8403492	holographique	-0.05294095
-3.8403492	socle	-0.05294095
-3.397926	guerre	-0.14070126
-3.8403492	l’opium	-0.05294095
-3.2822974	francs	-0.09460813
-3.8403492	tireurs	-0.05294095
-3.8403492	masqués	-0.05294095
-3.8403492	quant	-0.05294095
-3.8403492	odeurs	-0.05294095
-3.704677	quartier	-0.05294095
-3.8403492	restent	-0.05294095
-3.8403492	définir	-0.05294095
-3.0515306	quelques	-0.075594276
-3.8403492	allèrent	-0.05294095
-3.704677	d’autres	-0.05294095
-3.8403492	arrivèrent	-0.05294095
-3.555975	pendant	-0.05294095
-3.8403492	abandonné	-0.05294095
-3.555975	coin	-0.05294095
-3.8403492	vieux	-0.05294095
-3.1910708	marseille	-0.12420968
-3.8403492	jardin	-0.05294095
-3.8403492	public	-0.05294095
-3.8403492	s’ils	-0.05294095
-3.8403492	portaient	-0.05294095
-3.555975	cartons	-0.05294095
-3.704677	seraient	-0.05294095
-3.8403492	couleurs	-0.05294095
-3.8403492	verts	-0.05294095
-3.8403492	noirs	-0.05294095
-3.704677	passent	-0.05294095
-3.8403492	existence	-0.05294095
-3.8403492	avancer	-0.05294095
-3.704677	reculer	-0.05294095
-3.0515306	leurs	-0.05294095
-3.8403492	aiguilles	-0.05294095
-3.1910708	alors	-0.07138662
-3.8403492	éclair	-0.05294095
-3.704677	vérité	-0.05294095
-3.8403492	fit	-0.05294095
-3.1157203	jour	-0.075594276
-3.704677	rues	-0.05294095
-3.704677	manière	-0.05294095
-3.8403492	lignes	-0.05294095
-3.8403492	patte	-0.05294095
-3.8403492	d’oie	-0.05294095
-3.8403492	songeait	-0.05294095
-3.8403492	détails	-0.05294095
-3.8403492	insignifiants	-0.05294095
-3.8403492	aussitôt	-0.05294095
-3.8403492	dame	-0.05294095
-3.8403492	retira	-0.05294095
-3.397926	cuisse	-0.05294095
-3.8403492	disant	-0.05294095
-3.555975	qu’elle	-0.05294095
-3.704677	n’avait	-0.16572244
-3.8403492	d’argent	-0.05294095
-3.8403492	semblait	-0.05294095
-3.8403492	d’eux	-0.05294095
-3.704677	fût	-0.05294095
-3.397926	soudain	-0.05294095
-3.8403492	momentanément	-0.05294095
-3.555975	changé	-0.12478708
-3.8403492	accueillant	-0.05294095
-3.704677	peine	-0.05294095
-3.8403492	l’après	-0.05294095
-3.555975	midi	-0.05294095
-3.704677	l’aspect	-0.16572244
-3.8403492	lande	-0.05294095
-3.8403492	grandement	-0.05294095
-3.8403492	erreur	-0.05294095
-3.0515306	qu'il	-0.10568094
-3.2822974	n'avait	-0.09460813
-3.555975	vue	-0.05294095
-3.704677	auparavant	-0.05294095
-3.8403492	apparu	-0.05294095
-3.8403492	dalle	-0.05294095
-3.8403492	graphique	-0.05294095
-3.8403492	l’apôtre	-0.05294095
-3.8403492	apôtres	-0.05294095
-3.8403492	prêchait	-0.05294095
-3.555975	désert	-0.09460813
-3.8403492	fripouille	-0.05294095
-3.8403492	repasse	-0.05294095
-3.8403492	reniflant	-0.05294095
-3.8403492	réfléchissant	-0.05294095
-3.8403492	l’imaginez	-0.05294095
-3.1157203	beaucoup	-0.11531129
-3.8403492	d’émotion	-0.05294095
-3.8403492	m’adresse	-0.05294095
-3.8403492	avion	-0.05294095
-3.704677	invisible	-0.05294095
-3.8403492	clignoter	-0.05294095
-3.8403492	effaça	-0.05294095
-3.8403492	rapports	-0.05294095
-3.8403492	données	-0.05294095
-3.8403492	continua	-0.05294095
-3.555975	marche	-0.12478708
-3.8403492	m’imaginai	-0.05294095
-3.2822974	qu’un	-0.05294095
-3.704677	faible	-0.05294095
-3.8403492	cri	-0.05294095
-3.2822974	venait	-0.21715923
-3.1910708	cet	-0.07851084
-3.2822974	homme	-0.09065058
-3.8403492	éminent	-0.05294095
-3.0515306	fut	-0.05294095
-3.8403492	brouillard	-0.05294095
-3.8403492	déclaration	-0.05294095
-3.555975	j’avais	-0.12478708
-3.8403492	citoyen	-0.05294095
-3.8403492	courageux	-0.05294095
-3.8403492	aurais	-0.05294095
-3.8403492	parlé	-0.05294095
-3.704677	marseillais	-0.16572244
-3.704677	direction	-0.05294095
-3.8403492	précise	-0.05294095
-3.555975	vaisseau	-0.05294095
-3.8403492	baigné	-0.05294095
-3.704677	flot	-0.05294095
-3.8403492	d'irréalité	-0.05294095
-3.704677	manque	-0.05294095
-3.8403492	chaluts	-0.05294095
-3.8403492	golfe	-0.05294095
-3.8403492	persique	-0.05294095
-3.704677	maquis	-0.05294095
-3.8403492	nourrit	-0.05294095
-3.8403492	troupeau	-0.05294095
-3.8403492	abrite	-0.05294095
-3.8403492	gibier	-0.05294095
-3.704677	parfois	-0.16572244
-3.8403492	bandits	-0.05294095
-3.555975	janvier	-0.12478708
-3.8403492	44	-0.05294095
-3.8403492	l’ain	-0.05294095
-3.8403492	harcelés	-0.05294095
-3.8403492	divisions	-0.05294095
-3.704677	millions	-0.05294095
-3.8403492	avais	-0.05294095
-3.8403492	gagnés	-0.05294095
-3.8403492	restait	-0.05294095
-3.8403492	qu'une	-0.05294095
-3.704677	pièce	-0.12478708
-3.8403492	20	-0.05294095
-3.704677	car	-0.05294095
-3.555975	l'europe	-0.12478708
-3.8403492	n'a	-0.05294095
-3.8403492	s'unir	-0.05294095
-3.8403492	décliner	-0.05294095
-3.2822974	cent	-0.05294095
-3.2822974	vingt	-0.14070126
-3.1157203	sept	-0.07851084
-3.8403492	petite	-0.05294095
-3.397926	pris	-0.05294095
-3.8403492	chapeau	-0.05294095
-3.704677	préparait	-0.05294095
-3.8403492	cessa	-0.05294095
-3.8403492	d'être	-0.05294095
-3.704677	centre	-0.16572244
-3.8403492	l'univers	-0.05294095
-3.8403492	censé	-0.05294095
-3.704677	attendre	-0.05294095
-3.1157203	vos	-0.05294095
-3.8403492	collègues	-0.05294095
-3.8403492	laisser	-0.05294095
-3.555975	vivre	-0.10568094
-3.8403492	attendant	-0.05294095
-3.704677	tenta	-0.16572244
-3.8403492	revenir	-0.05294095
-3.8403492	hauteur	-0.05294095
-3.555975	peuvent	-0.05294095
-3.704677	recevoir	-0.05294095
-3.2822974	partie	-0.09460813
-3.8403492	impositions	-0.05294095
-3.8403492	natures	-0.05294095
-3.397926	reste	-0.05294095
-3.8403492	peler	-0.05294095
-3.8403492	pommes	-0.05294095
-3.8403492	glissaient	-0.05294095
-3.397926	l’être	-0.05294095
-3.8403492	classe	-0.05294095
-3.397926	ainsi	-0.05294095
-3.8403492	suite	-0.05294095
-3.555975	parce	-0.12478708
-3.8403492	murmure	-0.05294095
-3.8403492	siècles	-0.05294095
-3.8403492	dénivelé	-0.05294095
-3.8403492	mur	-0.05294095
-3.704677	poisseux	-0.05294095
-3.8403492	c’étaient	-0.05294095
-3.8403492	départs	-0.05294095
-3.704677	arrivées	-0.05294095
-3.8403492	indes	-0.05294095
-3.8403492	gars	-0.05294095
-3.1910708	font	-0.05294095
-3.8403492	excellent	-0.05294095
-3.2822974	travail	-0.08738
-3.704677	chef	-0.05294095
-3.8403492	armées	-0.05294095
-3.704677	canebière	-0.09460813
-3.8403492	train	-0.05294095
-3.8403492	n’allait	-0.05294095
-3.397926	qu’à	-0.05294095
-3.704677	trente	-0.05294095
-3.397926	kilomètres	-0.05294095
-3.8403492	beyrouth	-0.05294095
-3.8403492	reportai	-0.05294095
-3.704677	cylindre	-0.05294095
-3.8403492	irrésistible	-0.05294095
-3.8403492	terreur	-0.05294095
-3.8403492	s’empara	-0.05294095
-3.8403492	sommet	-0.05294095
-3.8403492	continuait	-0.05294095
-3.8403492	dévisser	-0.05294095
-3.8403492	nid	-0.05294095
-3.8403492	bête	-0.05294095
-3.8403492	anéantie	-0.05294095
-3.8403492	ajoutait	-0.05294095
-3.704677	c'est	-0.05294095
-3.555975	aujourd'hui	-0.05294095
-3.555975	l'affaire	-0.05294095
-3.704677	commence	-0.05294095
-3.704677	patriotes	-0.05294095
-3.704677	québécois	-0.05294095
-3.8403492	battent	-0.05294095
-3.8403492	faits	-0.05294095
-3.1910708	chaque	-0.05294095
-3.8403492	année	-0.05294095
-3.8403492	lancent	-0.05294095
-3.704677	nouveaux	-0.09460813
-3.8403492	courriers	-0.05294095
-3.704677	mers	-0.05294095
-3.8403492	jeta	-0.05294095
-3.8403492	désabusé	-0.05294095
-3.8403492	rendit	-0.05294095
-3.704677	sirènes	-0.05294095
-3.8403492	antiaériennes	-0.05294095
-3.8403492	d’annecy	-0.05294095
-3.8403492	emplissent	-0.05294095
-3.2822974	lentement	-0.05294095
-3.704677	l'on	-0.05294095
-3.8403492	abandonna	-0.05294095
-3.555975	autant	-0.12478708
-3.8403492	processus	-0.05294095
-3.8403492	assimilatoire	-0.05294095
-3.704677	voix	-0.05294095
-3.8403492	noyées	-0.05294095
-3.8403492	vacarme	-0.05294095
-3.8403492	antisémite	-0.05294095
-3.8403492	comprirent	-0.05294095
-3.704677	parlait	-0.05294095
-3.704677	langage	-0.05294095
-3.8403492	compréhensible	-0.05294095
-3.704677	dédaigné	-0.05294095
-3.8403492	d’apprendre	-0.05294095
-3.8403492	jeu	-0.05294095
-3.8403492	lutte	-0.05294095
-3.8403492	s'étonna	-0.05294095
-3.8403492	qu'on	-0.05294095
-3.704677	aucune	-0.05294095
-3.555975	longtemps	-0.05294095
-3.704677	voit	-0.05294095
-3.8403492	ensevelir	-0.05294095
-3.8403492	tués	-0.05294095
-3.704677	vieilles	-0.05294095
-3.555975	grands	-0.05294095
-3.8403492	regardaient	-0.05294095
-3.704677	membres	-0.16572244
-3.8403492	accès	-0.05294095
-3.8403492	assemblées	-0.05294095
-3.555975	l’air	-0.05294095
-3.8403492	l’eau	-0.05294095
-3.704677	nécessaire	-0.05294095
-3.8403492	existences	-0.05294095
-3.8403492	animées	-0.05294095
-3.8403492	évidemment	-0.05294095
-3.555975	docker	-0.12478708
-3.8403492	coltine	-0.05294095
-3.8403492	ballots	-0.05294095
-3.8403492	docks	-0.05294095
-3.8403492	coiffer	-0.05294095
-3.8403492	pleine	-0.05294095
-3.8403492	chapelle	-0.05294095
-3.8403492	commettre	-0.05294095
-3.8403492	péché	-0.05294095
-3.8403492	mortel	-0.05294095
-3.8403492	chemise	-0.05294095
-3.8403492	sein	-0.05294095
-3.8403492	hivers	-0.05294095
-3.397926	peuple	-0.05294095
-3.397926	vient	-0.05294095
-3.704677	remonter	-0.05294095
-3.555975	coeur	-0.05294095
-3.704677	veille	-0.05294095
-3.8403492	respect	-0.05294095
-3.8403492	constitution	-0.05294095
-3.555975	zola	-0.05294095
-3.704677	particulier	-0.05294095
-3.8403492	l'universel	-0.05294095
-3.8403492	l'une	-0.05294095
-3.397926	grandes	-0.05294095
-3.8403492	aventures	-0.05294095
-3.555975	scientifiques	-0.05294095
-3.555975	siècle	-0.05294095
-3.0515306	cela	-0.09514929
-3.8403492	occupé	-0.05294095
-3.8403492	arriva	-0.05294095
-3.8403492	mille	-0.05294095
-3.8403492	arméniens	-0.05294095
-3.8403492	chercher	-0.05294095
-3.8403492	l’embauche	-0.05294095
-3.704677	quarante	-0.05294095
-3.8403492	as	-0.05294095
-3.397926	cessé	-0.10568094
-3.8403492	surveiller	-0.05294095
-3.704677	ta	-0.05294095
-3.704677	ligne	-0.05294095
-3.8403492	escortaient	-0.05294095
-3.8403492	visiteur	-0.05294095
-3.8403492	présentaient	-0.05294095
-3.8403492	base	-0.05294095
-3.8403492	coutures	-0.05294095
-3.704677	debout	-0.05294095
-3.704677	devait	-0.05294095
-3.8403492	considérablement	-0.05294095
-3.8403492	refroidi	-0.05294095
-3.704677	révision	-0.05294095
-3.8403492	définitive	-0.05294095
-3.8403492	approuvée	-0.05294095
-3.704677	référendum	-0.05294095
-3.555975	présent	-0.12478708
-3.704677	traité	-0.05294095
-3.8403492	signature	-0.05294095
-3.704677	états	-0.05294095
-3.8403492	jette	-0.05294095
-3.8403492	côtés	-0.05294095
-3.0515306	seul	-0.05294095
-3.8403492	pont	-0.05294095
-3.704677	n’était	-0.05294095
-3.8403492	embarasser	-0.05294095
-3.1157203	l’homme	-0.07851084
-3.8403492	tint	-0.05294095
-3.8403492	l’autriche	-0.05294095
-3.8403492	hongrie	-0.05294095
-3.704677	échec	-0.05294095
-3.8403492	lampe	-0.05294095
-3.8403492	pétrole	-0.05294095
-3.555975	efforts	-0.05294095
-3.8403492	tardèrent	-0.05294095
-3.8403492	donner	-0.05294095
-3.8403492	résultat	-0.05294095
-3.8403492	appréciable	-0.05294095
-3.8403492	connus	-0.05294095
-3.704677	ailleurs	-0.05294095
-3.704677	qu’en	-0.05294095
-3.704677	l'authentification	-0.05294095
-3.8403492	basée	-0.05294095
-3.555975	composition	-0.05294095
-3.8403492	sanguine	-0.05294095
-3.704677	plutôt	-0.05294095
-3.704677	longue	-0.05294095
-3.8403492	affirmer	-0.05294095
-3.8403492	l’exigence	-0.05294095
-3.8403492	europe	-0.05294095
-3.8403492	puissance	-0.05294095
-3.704677	fier	-0.05294095
-3.555975	d’avoir	-0.05294095
-3.8403492	combattu	-0.05294095
-3.8403492	relâche	-0.05294095
-3.8403492	l’insécurité	-0.05294095
-3.8403492	délinquance	-0.05294095
-3.8403492	télescope	-0.05294095
-3.704677	semble	-0.05294095
-3.8403492	profonde	-0.05294095
-3.704677	tête	-0.05294095
-3.8403492	d'elias	-0.05294095
-3.8403492	sourit	-0.05294095
-3.8403492	cris	-0.05294095
-3.8403492	poussés	-0.05294095
-3.8403492	camarades	-0.05294095
-3.8403492	l’ouest	-0.05294095
-3.555975	magnifique	-0.12478708
-3.8403492	seuil	-0.05294095
-3.8403492	demeure	-0.05294095
-3.8403492	vais	-0.05294095
-3.555975	sentir	-0.05294095
-3.8403492	considération	-0.05294095
-3.8403492	pauvres	-0.05294095
-3.8403492	nègres	-0.05294095
-3.8403492	blancs	-0.05294095
-3.555975	perdu	-0.05294095
-3.8403492	dresse	-0.05294095
-3.555975	masse	-0.05294095
-3.8403492	colossale	-0.05294095
-3.8403492	enfouie	-0.05294095
-3.555975	sol	-0.05294095
-2.9460895	aussi	-0.05294095
-3.2822974	malgré	-0.05294095
-3.8403492	clairs	-0.05294095
-3.8403492	tympan	-0.05294095
-3.8403492	tendu	-0.05294095
-3.704677	sourds	-0.05294095
-3.704677	aveugles	-0.16572244
-3.704677	veux	-0.05294095
-3.8403492	rapport	-0.05294095
-3.8403492	explications	-0.05294095
-3.8403492	l'eau	-0.05294095
-3.8403492	accessible	-0.05294095
-3.8403492	banques	-0.05294095
-3.397926	voilà	-0.05294095
-3.8403492	fêta	-0.05294095
-3.8403492	centième	-0.05294095
-3.8403492	anniversaire	-0.05294095
-3.8403492	fondation	-0.05294095
-3.8403492	emmena	-0.05294095
-3.2822974	femme	-0.14070126
-3.397926	bras	-0.09460813
-3.8403492	s’élève	-0.05294095
-3.704677	dessus	-0.05294095
-3.8403492	intérêts	-0.05294095
-3.8403492	particuliers	-0.05294095
-3.8403492	commencé	-0.05294095
-3.8403492	harangue	-0.05294095
-3.704677	spectacle	-0.05294095
-3.8403492	imprévu	-0.05294095
-3.8403492	figea	-0.05294095
-3.8403492	attitudes	-0.05294095
-3.8403492	arrivera	-0.05294095
-3.704677	vrai	-0.05294095
-3.8403492	magasin	-0.05294095
-3.704677	nom	-0.05294095
-3.8403492	peint	-0.05294095
-3.8403492	vitre	-0.05294095
-3.8403492	minute	-0.05294095
-3.704677	contact	-0.05294095
-3.8403492	s’agitait	-0.05294095
-3.8403492	retenait	-0.05294095
-3.555975	souffle	-0.05294095
-3.704677	griffes	-0.05294095
-3.8403492	libération	-0.05294095
-3.704677	général	-0.05294095
-3.8403492	gaulle	-0.05294095
-3.8403492	appelle	-0.05294095
-3.704677	jean	-0.16572244
-3.8403492	monnet	-0.05294095
-3.8403492	redressement	-0.05294095
-3.704677	prix	-0.05294095
-3.8403492	complétée	-0.05294095
-3.8403492	révolution	-0.05294095
-3.555975	sociale	-0.12478708
-3.704677	hautes	-0.05294095
-3.704677	figures	-0.05294095
-3.8403492	spirituelles	-0.05294095
-3.8403492	l’humanité	-0.05294095
-3.8403492	césar	-0.05294095
-3.704677	cartes	-0.05294095
-3.8403492	postales	-0.05294095
-3.2822974	contre	-0.09460813
-3.8403492	glaces	-0.05294095
-3.8403492	l’arménien	-0.05294095
-3.8403492	plante	-0.05294095
-3.8403492	qu’entre	-0.05294095
-3.8403492	pavés	-0.05294095
-3.8403492	cité	-0.05294095
-3.704677	ai	-0.05294095
-3.704677	découvert	-0.05294095
-3.8403492	peuplade	-0.05294095
-3.8403492	représentée	-0.05294095
-3.8403492	société	-0.05294095
-3.704677	nations	-0.05294095
-3.8403492	hangar	-0.05294095
-3.8403492	traversée	-0.05294095
-3.704677	ministre	-0.05294095
-3.8403492	dirige	-0.05294095
-3.8403492	l'action	-0.05294095
-3.8403492	epais	-0.05294095
-3.8403492	liquide	-0.05294095
-3.8403492	d'odeur	-0.05294095
-3.704677	particulière	-0.05294095
-3.8403492	emilie	-0.05294095
-3.8403492	rencontrée	-0.05294095
-3.397926	ouvrit	-0.10568094
-3.704677	conversation	-0.05294095
-3.8403492	vocale	-0.05294095
-3.8403492	accident	-0.05294095
-3.704677	départ	-0.05294095
-3.704677	m’a	-0.05294095
-3.8403492	débauché	-0.05294095
-3.704677	soixante	-0.05294095
-3.8403492	l’espace	-0.05294095
-3.8403492	tranquillité	-0.05294095
-3.8403492	parfaites	-0.05294095
-3.8403492	vérifia	-0.05294095
-3.8403492	perfusion	-0.05294095
-3.8403492	n'injectait	-0.05294095
-2.995618	rien	-0.18365191
-3.8403492	image	-0.05294095
-3.8403492	floue	-0.05294095
-3.8403492	mouvante	-0.05294095
-3.8403492	formait	-0.05294095
-3.8403492	déformait	-0.05294095
-3.8403492	s’engourdissait	-0.05294095
-3.704677	éprouvait	-0.05294095
-3.8403492	difficultés	-0.05294095
-3.8403492	dissimuler	-0.05294095
-3.8403492	colère	-0.05294095
-3.8403492	déterminé	-0.05294095
-3.2822974	mouvement	-0.05294095
-3.8403492	d'équité	-0.05294095
-3.8403492	s'arrêtera	-0.05294095
-3.8403492	reconnut	-0.05294095
-3.704677	faisant	-0.05294095
-3.8403492	poids	-0.05294095
-3.704677	simple	-0.05294095
-3.8403492	posée	-0.05294095
-3.8403492	contemplerez	-0.05294095
-3.704677	signes	-0.05294095
-3.8403492	ciel	-0.05294095
-3.704677	fruits	-0.05294095
-3.8403492	clients	-0.05294095
-3.8403492	interrogent	-0.05294095
-3.8403492	contrarié	-0.05294095
-3.8403492	relança	-0.05294095
-3.8403492	réécrit	-0.05294095
-3.8403492	délasse	-0.05294095
-3.704677	bateau	-0.05294095
-3.397926	longues	-0.05294095
-3.8403492	traversées	-0.05294095
-3.704677	c’était	-0.05294095
-3.8403492	appréciait	-0.05294095
-3.8403492	tant	-0.05294095
-3.555975	professeur	-0.082289726
-3.8403492	souvenir	-0.05294095
-3.8403492	revint	-0.05294095
-3.8403492	puissamment	-0.05294095
-3.8403492	physiquement	-0.05294095
-3.8403492	ébranlé	-0.05294095
-3.555975	prend	-0.05294095
-3.8403492	air	-0.05294095
-3.8403492	complicité	-0.05294095
-3.8403492	internationale	-0.05294095
-3.8403492	d’encouragement	-0.05294095
-3.704677	crime	-0.16572244
-3.555975	serais	-0.05294095
-3.8403492	préfet	-0.05294095
-3.8403492	bouches	-0.05294095
-3.8403492	rhône	-0.05294095
-3.8403492	n’aurais	-0.05294095
-3.8403492	chances	-0.05294095
-3.704677	vote	-0.05294095
-3.704677	personnel	-0.16572244
-3.8403492	écoutez	-0.05294095
-3.397926	port	-0.17258403
-3.8403492	parle	-0.05294095
-3.8403492	couche	-0.05294095
-3.8403492	voisin	-0.05294095
-3.8403492	croyant	-0.05294095
-3.704677	coucher	-0.05294095
-3.8403492	jet	-0.05294095
-3.8403492	feu	-0.05294095
-3.555975	devint	-0.05294095
-3.704677	quart	-0.05294095
-3.8403492	d’heure	-0.05294095
-3.8403492	posez	-0.05294095
-3.704677	questions	-0.05294095
-3.8403492	stupides	-0.05294095
-3.8403492	attendez	-0.05294095
-3.8403492	explique	-0.05294095
-3.8403492	charbonnier	-0.05294095
-3.8403492	quai	-0.05294095
-3.8403492	ouvrier	-0.05294095
-3.555975	six	-0.05294095
-3.1910708	heures	-0.082289726
-3.555975	leva	-0.05294095
-3.704677	donna	-0.05294095
-3.555975	huit	-0.12478708
-3.8403492	décisions	-0.05294095
-3.8403492	susceptibles	-0.05294095
-3.8403492	d'aucun	-0.05294095
-3.8403492	recours	-0.05294095
-3.704677	moyens	-0.16572244
-3.8403492	communication	-0.05294095
-3.8403492	furent	-0.05294095
-3.8403492	retirés	-0.05294095
-3.8403492	protecteurs	-0.05294095
-3.8403492	clique	-0.05294095
-3.704677	prisonniers	-0.16572244
-3.8403492	prestige	-0.05294095
-3.704677	immense	-0.05294095
-3.8403492	auteur	-0.05294095
-3.8403492	parvenu	-0.05294095
-3.8403492	faîte	-0.05294095
-3.8403492	gloire	-0.05294095
-3.8403492	littéraire	-0.05294095
-3.8403492	emboîta	-0.05294095
-3.555975	soldats	-0.05294095
-3.555975	suivi	-0.12478708
-3.704677	près	-0.05294095
-3.704677	points	-0.05294095
-3.555975	portent	-0.05294095
-3.8403492	présentes	-0.05294095
-3.8403492	propositions	-0.05294095
-3.555975	donne	-0.05294095
-3.8403492	auras	-0.05294095
-3.704677	nomme	-0.05294095
-3.8403492	ferai	-0.05294095
-3.704677	prévenir	-0.05294095
-3.8403492	prochaine	-0.05294095
-3.8403492	escarmouche	-0.05294095
-3.555975	guère	-0.05294095
-3.2822974	moment	-0.05294095
-3.8403492	d’engager	-0.05294095
-3.8403492	nette	-0.05294095
-3.8403492	résisté	-0.05294095
-3.8403492	l'isolation	-0.05294095
-3.704677	s'était	-0.05294095
-3.8403492	dévoilé	-0.05294095
-3.8403492	tentant	-0.05294095
-3.8403492	d’alerter	-0.05294095
-3.8403492	civilisation	-0.05294095
-3.8403492	cavité	-0.05294095
-3.704677	circulaire	-0.05294095
-3.704677	sembla	-0.05294095
-3.8403492	parfaitement	-0.05294095
-3.8403492	noire	-0.05294095
-3.8403492	écho	-0.05294095
-3.8403492	glières	-0.05294095
-3.8403492	explosions	-0.05294095
-3.8403492	ouvriers	-0.05294095
-3.8403492	parmi	-0.05294095
-3.8403492	dockers	-0.05294095
-3.555975	justement	-0.12478708
-3.555975	matin	-0.05294095
-3.8403492	l'arrivée	-0.05294095
-3.704677	resta	-0.05294095
-3.8403492	écrans	-0.05294095
-3.8403492	contrôles	-0.05294095
-3.8403492	mères	-0.05294095
-3.8403492	acolytes	-0.05294095
-3.8403492	brigade	-0.05294095
-3.8403492	mobile	-0.05294095
-3.8403492	pègre	-0.05294095
-3.704677	hors	-0.05294095
-3.8403492	session	-0.05294095
-3.8403492	réuni	-0.05294095
-3.8403492	spécialement	-0.05294095
-3.8403492	crierai	-0.05294095
-3.2822974	force	-0.13491009
-3.8403492	révolte	-0.05294095
-3.8403492	d'honnête	-0.05294095
-3.8403492	généralissime	-0.05294095
-3.8403492	contrebandiers	-0.05294095
-3.8403492	n’échappait	-0.05294095
-3.8403492	l’éparpillement	-0.05294095
-3.8403492	gravitant	-0.05294095
-3.8403492	18	-0.05294095
-3.8403492	juin	-0.05294095
-3.8403492	bars	-0.05294095
-3.8403492	quinze	-0.05294095
-3.8403492	repaires	-0.05294095
-3.8403492	parlent	-0.05294095
-3.8403492	langues	-0.05294095
-3.8403492	différentes	-0.05294095
-3.704677	n'ont	-0.16572244
-3.8403492	religion	-0.05294095
-3.704677	changements	-0.05294095
-3.704677	l'objet	-0.16572244
-3.704677	d'une	-0.05294095
-3.8403492	mention	-0.05294095
-3.8403492	marge	-0.05294095
-3.8403492	l'acte	-0.05294095
-3.8403492	amené	-0.05294095
-3.8403492	chimiste	-0.05294095
-3.704677	jusqu’ici	-0.05294095
-3.8403492	savant	-0.05294095
-3.8403492	sagement	-0.05294095
-3.8403492	émigrants	-0.05294095
-3.8403492	suivent	-0.05294095
-3.8403492	péripéties	-0.05294095
-3.8403492	l’écran	-0.05294095
-3.8403492	dirait	-0.05294095
-3.704677	qu’elles	-0.05294095
-3.8403492	veulent	-0.05294095
-3.8403492	aboutir	-0.05294095
-3.8403492	oeil	-0.05294095
-3.555975	voulait	-0.05294095
-3.8403492	qu'elle	-0.05294095
-3.8403492	agissait	-0.05294095
-3.704677	propre	-0.05294095
-3.8403492	m’accompagniez	-0.05294095
-3.8403492	d’école	-0.05294095
-3.8403492	malfaiteurs	-0.05294095
-3.8403492	11	-0.05294095
-3.704677	1898	-0.05294095
-3.8403492	l'injustice	-0.05294095
-3.8403492	atteint	-0.05294095
-3.8403492	l'usage	-0.05294095
-3.8403492	l'apostrophe	-0.05294095
-3.555975	sera	-0.05294095
-3.8403492	également	-0.05294095
-3.8403492	supprimé	-0.05294095
-3.8403492	soudure	-0.05294095
-3.8403492	tournent	-0.05294095
-3.8403492	piste	-0.05294095
-3.8403492	tourne	-0.05294095
-3.8403492	serra	-0.05294095
-3.8403492	l’attendit	-0.05294095
-3.8403492	demi	-0.05294095
-3.704677	heure	-0.12478708
-3.8403492	reparut	-0.05294095
-3.8403492	anna	-0.05294095
-3.704677	dix	-0.05294095
-3.8403492	automobile	-0.05294095
-3.8403492	justice	-0.05294095
-3.8403492	vice	-0.05294095
-3.8403492	voulant	-0.05294095
-3.8403492	arracher	-0.05294095
-3.704677	secret	-0.05294095
-3.8403492	acides	-0.05294095
-3.704677	mystérieux	-0.05294095
-3.8403492	brûlé	-0.05294095
-3.8403492	bleus	-0.05294095
-3.8403492	suffit	-0.05294095
-3.8403492	refuser	-0.05294095
-3.555975	situation	-0.05294095
-3.555975	faut	-0.05294095
-3.8403492	remédier	-0.05294095
-3.704677	cigarette	-0.05294095
-3.8403492	s'échappa	-0.05294095
-3.704677	lèvres	-0.05294095
-3.8403492	s'écrasa	-0.05294095
-3.8403492	gerbe	-0.05294095
-3.8403492	d'étincelles	-0.05294095
-3.8403492	rôdé	-0.05294095
-3.555975	vu	-0.05294095
-3.8403492	merci	-0.05294095
-3.704677	j'ai	-0.05294095
-3.704677	dormi	-0.05294095
-3.8403492	j'espère	-0.05294095
-3.8403492	indirect	-0.05294095
-3.8403492	conditions	-0.05294095
-3.8403492	prévues	-0.05294095
-3.8403492	restant	-0.05294095
-3.8403492	nord	-0.05294095
-3.704677	compta	-0.05294095
-3.704677	quatrième	-0.05294095
-3.8403492	cinquième	-0.05294095
-3.8403492	sixième	-0.05294095
-3.555975	fois	-0.12478708
-3.704677	loi	-0.12478708
-3.8403492	organique	-0.05294095
-3.8403492	autoriser	-0.05294095
-3.8403492	exceptionnellement	-0.05294095
-3.704677	délégation	-0.16572244
-3.397926	voyage	-0.05294095
-3.8403492	buts	-0.05294095
-3.704677	différents	-0.05294095
-3.8403492	police	-0.05294095
-3.8403492	prétend	-0.05294095
-3.8403492	facilite	-0.05294095
-3.8403492	tâche	-0.05294095
-3.8403492	n’avez	-0.05294095
-3.8403492	d’habiter	-0.05294095
-3.8403492	l’effet	-0.05294095
-3.8403492	obscurité	-0.05294095
-3.8403492	glaciale	-0.05294095
-3.8403492	d’étoiles	-0.05294095
-3.555975	cas	-0.05294095
-3.704677	mandat	-0.16572244
-3.8403492	habitant	-0.05294095
-3.2822974	ni	-0.05294095
-3.8403492	peux	-0.05294095
-3.8403492	imaginer	-0.05294095
-3.8403492	dévoiler	-0.05294095
-3.8403492	manifestement	-0.05294095
-3.8403492	né	-0.05294095
-3.8403492	heurta	-0.05294095
-3.8403492	surtout	-0.05294095
-3.8403492	montré	-0.05294095
-3.8403492	chômage	-0.05294095
-3.8403492	fatalité	-0.05294095
-3.8403492	diamants	-0.05294095
-3.8403492	carats	-0.05294095
-3.8403492	centaines	-0.05294095
-3.8403492	livres	-0.05294095
-3.8403492	sterling	-0.05294095
-3.8403492	véhicule	-0.05294095
-3.8403492	microbes	-0.05294095
-3.8403492	mauvaises	-0.05294095
-3.8403492	combines	-0.05294095
-3.8403492	mesdames	-0.05294095
-3.704677	l'ordre	-0.05294095
-3.704677	mourir	-0.05294095
-3.8403492	rabaisser	-0.05294095
-3.555975	l’animal	-0.05294095
-3.8403492	passée	-0.05294095
-3.8403492	l'heure	-0.05294095
-3.8403492	déjeuner	-0.05294095
-3.8403492	violence	-0.05294095
-3.8403492	s'habilla	-0.05294095
-3.555975	enfin	-0.05294095
-3.8403492	lit	-0.05294095
-3.704677	pensées	-0.05294095
-3.8403492	remarqua	-0.05294095
-3.704677	préside	-0.05294095
-3.8403492	conseils	-0.05294095
-3.8403492	comités	-0.05294095
-3.8403492	supérieurs	-0.05294095
-3.8403492	défense	-0.05294095
-3.397926	dire	-0.09460813
-3.8403492	communications	-0.05294095
-3.8403492	coupées	-0.05294095
-3.704677	signaux	-0.05294095
-3.8403492	répétés	-0.05294095
-3.8403492	ressemblait	-0.05294095
-3.704677	d’être	-0.05294095
-3.8403492	évasif	-0.05294095
-3.8403492	pensez	-0.05294095
-3.8403492	rôder	-0.05294095
-3.8403492	méditerranée	-0.05294095
-3.704677	connais	-0.05294095
-3.704677	l’histoire	-0.05294095
-3.8403492	s'unissent	-0.05294095
-3.8403492	savoirs	-0.05294095
-3.8403492	physique	-0.05294095
-3.8403492	chimie	-0.05294095
-3.8403492	biologie	-0.05294095
-3.8403492	construire	-0.05294095
-3.8403492	salariés	-0.05294095
-3.8403492	étudiants	-0.05294095
-3.8403492	lycéens	-0.05294095
-3.704677	uniforme	-0.05294095
-3.8403492	laissait	-0.05294095
-3.8403492	observer	-0.05294095
-3.704677	détail	-0.16572244
-3.8403492	d’études	-0.05294095
-3.8403492	dégradent	-0.05294095
-3.8403492	cherché	-0.05294095
-3.8403492	moyen	-0.05294095
-3.8403492	d’approcher	-0.05294095
-3.704677	avis	-0.05294095
-3.8403492	sanctions	-0.05294095
-3.8403492	disciplinaires	-0.05294095
-3.8403492	concernant	-0.05294095
-3.704677	magistrats	-0.16572244
-3.8403492	parquet	-0.05294095
-3.704677	suis	-0.05294095
-3.8403492	merveilleux	-0.05294095
-3.8403492	kaléidoscope	-0.05294095
-3.555975	côtes	-0.12478708
-3.8403492	reprit	-0.05294095
-3.8403492	froidement	-0.05294095
-3.8403492	analysa	-0.05294095
-3.8403492	phénomène	-0.05294095
-3.704677	étrange	-0.05294095
-3.8403492	d'invisibilité	-0.05294095
-3.704677	absolue	-0.16572244
-3.8403492	hauts	-0.05294095
-3.704677	lieux	-0.05294095
-3.8403492	nucléaire	-0.05294095
-3.8403492	l’établissement	-0.05294095
-3.8403492	chanteuses	-0.05294095
-3.8403492	demandant	-0.05294095
-3.8403492	s’il	-0.05294095
-3.555975	pouvait	-0.05294095
-3.8403492	visiter	-0.05294095
-3.8403492	station	-0.05294095
-3.8403492	rarement	-0.05294095
-3.8403492	tendue	-0.05294095
-3.8403492	frisson	-0.05294095
-3.8403492	venu	-0.05294095
-3.8403492	l'extérieur	-0.05294095
-3.555975	puisse	-0.05294095
-3.2822974	mieux	-0.05294095
-3.8403492	représenter	-0.05294095
-3.8403492	j'y	-0.05294095
-3.8403492	rencontrai	-0.05294095
-3.8403492	l'aumônier	-0.05294095
-3.8403492	l'absolution	-0.05294095
-3.8403492	avons	-0.05294095
-3.8403492	accompli	-0.05294095
-3.704677	ensemble	-0.05294095
-3.8403492	avança	-0.05294095
-3.8403492	pression	-0.05294095
-3.8403492	s'accentua	-0.05294095
-3.8403492	court	-0.05294095
-3.8403492	univers	-0.05294095
-3.8403492	bonnes	-0.05294095
-3.8403492	intentions	-0.05294095
-3.8403492	fonde	-0.05294095
-3.8403492	comité	-0.05294095
-3.8403492	d'action	-0.05294095
-3.8403492	etats	-0.05294095
-3.8403492	unis	-0.05294095
-3.8403492	d'europe	-0.05294095
-3.8403492	disent	-0.05294095
-3.8403492	colonialisme	-0.05294095
-3.8403492	l'exploitation	-0.05294095
-3.8403492	température	-0.05294095
-3.704677	peau	-0.12478708
-3.8403492	modifia	-0.05294095
-3.8403492	sensiblement	-0.05294095
-3.704677	lieu	-0.05294095
-3.8403492	dépôt	-0.05294095
-3.8403492	tenez	-0.05294095
-3.8403492	levantin	-0.05294095
-3.555975	assis	-0.12478708
-3.397926	cour	-0.11376658
-3.397926	question	-0.20846276
-3.8403492	rêver	-0.05294095
-3.8403492	obéissant	-0.05294095
-3.704677	cycle	-0.05294095
-3.8403492	classique	-0.05294095
-3.8403492	lumières	-0.05294095
-3.704677	couloirs	-0.05294095
-3.704677	s’étaient	-0.05294095
-3.8403492	tamisées	-0.05294095
-3.704677	panthéon	-0.05294095
-3.8403492	t'accueille	-0.05294095
-3.8403492	l'auteur	-0.05294095
-3.8403492	camélias	-0.05294095
-3.704677	forment	-0.05294095
-3.8403492	d’h	-0.05294095
-3.8403492	crochu	-0.05294095
-3.8403492	bancal	-0.05294095
-3.704677	crois	-0.05294095
-3.8403492	feriez	-0.05294095
-3.555975	venir	-0.05294095
-3.704677	colonisés	-0.05294095
-3.704677	sommes	-0.05294095
-3.704677	politiquement	-0.05294095
-3.8403492	socialement	-0.05294095
-3.8403492	économiquement	-0.05294095
-3.8403492	habillés	-0.05294095
-3.8403492	proprement	-0.05294095
-3.8403492	groupés	-0.05294095
-3.8403492	l’indifférence	-0.05294095
-3.8403492	coupable	-0.05294095
-3.8403492	contemporains	-0.05294095
-3.8403492	désarme	-0.05294095
-3.8403492	celle	-0.05294095
-3.8403492	ci	-0.05294095
-3.8403492	cils	-0.05294095
-3.8403492	expression	-0.05294095
-3.8403492	admirative	-0.05294095
-3.8403492	dessina	-0.05294095
-3.2822974	visage	-0.082289726
-3.8403492	descendis	-0.05294095
-3.704677	trou	-0.05294095
-3.8403492	crus	-0.05294095
-3.555975	pieds	-0.05294095
-3.8403492	colonisé	-0.05294095
-3.8403492	négocie	-0.05294095
-3.8403492	ratifie	-0.05294095
-3.8403492	traités	-0.05294095
-3.8403492	s’inscrivent	-0.05294095
-3.8403492	tradition	-0.05294095
-3.8403492	réfection	-0.05294095
-3.8403492	progressive	-0.05294095
-3.8403492	permanente	-0.05294095
-3.8403492	frère	-0.05294095
-3.8403492	dis	-0.05294095
-3.8403492	mourrons	-0.05294095
-3.704677	forces	-0.05294095
-3.8403492	m'abandonneront	-0.05294095
-3.8403492	vis	-0.05294095
-3.8403492	gamin	-0.05294095
-3.8403492	emmener	-0.05294095
-3.8403492	brouette	-0.05294095
-3.8403492	provisions	-0.05294095
-3.8403492	demandait	-0.05294095
-3.704677	simplement	-0.05294095
-3.8403492	s'il	-0.05294095
-3.8403492	quelqu'un	-0.05294095
-3.555975	bout	-0.12478708
-3.704677	champ	-0.05294095
-3.704677	bataille	-0.05294095
-3.8403492	ingénieur	-0.05294095
-3.8403492	confondu	-0.05294095
-3.704677	trouvait	-0.05294095
-3.555975	répondre	-0.12478708
-3.704677	martiens	-0.05294095
-3.8403492	préparaient	-0.05294095
-3.8403492	remarquer	-0.05294095
-3.8403492	l'insigne	-0.05294095
-3.8403492	accroché	-0.05294095
-3.8403492	veston	-0.05294095
-3.8403492	cumul	-0.05294095
-3.555975	noms	-0.05294095
-3.8403492	d'usage	-0.05294095
-3.555975	n'est	-0.05294095
-3.704677	c'était	-0.05294095
-3.8403492	anciens	-0.05294095
-3.8403492	semblables	-0.05294095
-3.8403492	radars	-0.05294095
-3.8403492	ecoutez	-0.05294095
-3.8403492	principe	-0.05294095
-3.8403492	paire	-0.05294095
-3.555975	commissaire	-0.05294095
-3.8403492	vendredis	-0.05294095
-3.8403492	messageries	-0.05294095
-3.8403492	maritimes	-0.05294095
-3.8403492	partent	-0.05294095
-3.8403492	lune	-0.05294095
-3.8403492	rayonnant	-0.05294095
-3.704677	large	-0.05294095
-3.8403492	sourire	-0.05294095
-3.8403492	respirait	-0.05294095
-3.8403492	l’énergie	-0.05294095
-3.8403492	exposition	-0.05294095
-3.704677	coloniale	-0.05294095
-3.704677	ministres	-0.12478708
-3.397926	avant	-0.05294095
-3.8403492	rêve	-0.05294095
-3.8403492	d'unir	-0.05294095
-3.8403492	pacifiquement	-0.05294095
-3.704677	peuples	-0.05294095
-3.8403492	bureau	-0.05294095
-3.8403492	congrès	-0.05294095
-3.397926	l'assemblée	-0.400693
-3.8403492	fixées	-0.05294095
-3.8403492	assemblée	-0.05294095
-3.8403492	enfants	-0.05294095
-3.8403492	écoles	-0.05294095
-3.8403492	conduits	-0.05294095
-3.8403492	confrontés	-0.05294095
-3.704677	l’horizon	-0.05294095
-3.8403492	brader	-0.05294095
-3.2822974	notre	-0.05294095
-3.8403492	modèle	-0.05294095
-3.704677	équipe	-0.05294095
-3.8403492	modestes	-0.05294095
-3.8403492	locaux	-0.05294095
-3.8403492	prendra	-0.05294095
-3.704677	forme	-0.05294095
-3.8403492	vital	-0.05294095
-3.704677	poursuivre	-0.05294095
-3.8403492	construction	-0.05294095
-3.8403492	européenne	-0.05294095
-3.704677	met	-0.05294095
-3.8403492	pratique	-0.05294095
-3.8403492	patience	-0.05294095
-3.8403492	reçue	-0.05294095
-3.8403492	héritage	-0.05294095
-3.704677	certains	-0.12478708
-3.704677	comprendre	-0.05294095
-3.704677	l’époque	-0.05294095
-3.704677	sortent	-0.16572244
-3.2822974	chez	-0.08738
-3.8403492	établis	-0.05294095
-3.8403492	représentés	-0.05294095
-3.555975	sénat	-0.12478708
-3.8403492	trio	-0.05294095
-3.8403492	d’innocents	-0.05294095
-3.8403492	promenâmes	-0.05294095
-3.704677	long	-0.05294095
-3.8403492	bord	-0.05294095
-3.8403492	allez	-0.05294095
-3.1910708	voir	-0.08738
-3.704677	combien	-0.05294095
-3.8403492	drôles	-0.05294095
-3.8403492	habitudes	-0.05294095
-3.8403492	habitués	-0.05294095
-3.8403492	aurez	-0.05294095
-3.8403492	achetés	-0.05294095
-3.8403492	paraîtra	-0.05294095
-3.8403492	réalité	-0.05294095
-3.8403492	l’avais	-0.05294095
-3.8403492	d’abord	-0.05294095
-3.8403492	mis	-0.05294095
-3.8403492	milieu	-0.05294095
-3.704677	rue	-0.16572244
-3.8403492	principale	-0.05294095
-3.8403492	lendemain	-0.05294095
-3.8403492	sentit	-0.05294095
-3.8403492	poser	-0.05294095
-3.8403492	sien	-0.05294095
-3.8403492	embarquait	-0.05294095
-3.8403492	jeunesse	-0.05294095
-3.8403492	maroc	-0.05294095
-3.8403492	syrie	-0.05294095
-3.8403492	tour	-0.05294095
-3.8403492	tchécoslovaques	-0.05294095
-3.8403492	lemblème	-0.05294095
-3.704677	national	-0.16572244
-3.8403492	drapeau	-0.05294095
-3.8403492	tricolore	-0.05294095
-3.555975	bleu	-0.05294095
-3.704677	blanc	-0.05294095
-3.8403492	rouge	-0.05294095
-3.8403492	déplaça	-0.05294095
-3.8403492	doigts	-0.05294095
-3.8403492	parcourut	-0.05294095
-3.8403492	s'arrêtait	-0.05294095
-3.8403492	abîme	-0.05294095
-3.8403492	d'incompréhension	-0.05294095
-3.8403492	mutuelle	-0.05294095
-3.8403492	supérieur	-0.05294095
-3.8403492	magistrature	-0.05294095
-3.8403492	présidé	-0.05294095
-3.8403492	penchait	-0.05294095
-3.8403492	arrière	-0.05294095
-3.8403492	l'entraînait	-0.05294095
-3.8403492	repars	-0.05294095
-3.8403492	demain	-0.05294095
-3.8403492	voiture	-0.05294095
-3.8403492	commençai	-0.05294095
-3.8403492	lisais	-0.05294095
-3.8403492	roman	-0.05294095
-3.8403492	indivisible	-0.05294095
-3.8403492	laïque	-0.05294095
-3.8403492	démocratique	-0.05294095
-3.8403492	neige	-0.05294095
-3.8403492	flux	-0.05294095
-3.8403492	reflux	-0.05294095
-3.8403492	préhistorique	-0.05294095
-3.8403492	foire	-0.05294095
-3.555975	puces	-0.05294095
-3.8403492	veut	-0.05294095
-3.704677	indispensable	-0.16572244
-3.8403492	petits	-0.05294095
-3.8403492	impuissant	-0.05294095
-3.8403492	reconnecta	-0.05294095
-3.8403492	s'endormit	-0.05294095
-3.8403492	calleuses	-0.05294095
-3.8403492	noires	-0.05294095
-3.8403492	enduites	-0.05294095
-3.704677	sang	-0.05294095
-3.8403492	coagulé	-0.05294095
-3.8403492	clair	-0.05294095
-3.8403492	précédente	-0.05294095
-3.8403492	lirait	-0.05294095
-3.8403492	planisphère	-0.05294095
-3.8403492	terrestre	-0.05294095
-3.8403492	totalement	-0.05294095
-3.8403492	dominé	-0.05294095
-3.704677	curiosité	-0.05294095
-3.8403492	lécha	-0.05294095
-3.8403492	interdit	-0.05294095
-3.8403492	dubitatif	-0.05294095
-3.8403492	d'arriver	-0.05294095
-3.8403492	solliciterai	-0.05294095
-3.8403492	suffrages	-0.05294095
-3.8403492	comblez	-0.05294095
-3.704677	mesure	-0.05294095
-3.8403492	manquez	-0.05294095
-3.8403492	tact	-0.05294095
-3.8403492	seuls	-0.05294095
-3.8403492	ferons	-0.05294095
-3.8403492	bouleversements	-0.05294095
-3.8403492	économiques	-0.05294095
-3.8403492	pourrez	-0.05294095
-3.8403492	m’accuser	-0.05294095
-3.8403492	visions	-0.05294095
-3.8403492	superficielles	-0.05294095
-3.8403492	garant	-0.05294095
-3.8403492	l'indépendance	-0.05294095
-3.8403492	l'autorité	-0.05294095
-3.8403492	judiciaire	-0.05294095
-3.8403492	modalités	-0.05294095
-3.8403492	d'application	-0.05294095
-3.8403492	article	-0.05294095
-3.8403492	emplois	-0.05294095
-3.8403492	civils	-0.05294095
-3.8403492	militaires	-0.05294095
-3.704677	l'état	-0.05294095
-3.8403492	ressentent	-0.05294095
-3.8403492	dédaignée	-0.05294095
-3.8403492	certaines	-0.05294095
-3.8403492	occasions	-0.05294095
-3.8403492	procédures	-0.05294095
-3.555975	lors	-0.12478708
-3.8403492	visite	-0.05294095
-3.8403492	gonflés	-0.05294095
-3.8403492	relever	-0.05294095
-3.8403492	l’aide	-0.05294095
-3.8403492	canne	-0.05294095
-3.8403492	pataugeant	-0.05294095
-3.8403492	malchance	-0.05294095
-3.704677	mots	-0.05294095
-3.8403492	accentués	-0.05294095
-3.8403492	dictionnaires	-0.05294095
-3.8403492	appris	-0.05294095
-3.8403492	carte	-0.05294095
-3.8403492	postale	-0.05294095
-3.8403492	prospecteur	-0.05294095
-3.8403492	m’accompagnait	-0.05294095
-3.8403492	parut	-0.05294095
-3.8403492	eut	-0.05294095
-3.8403492	reflets	-0.05294095
-3.8403492	cuir	-0.05294095
-3.8403492	mouillé	-0.05294095
-3.8403492	tempérament	-0.05294095
-3.8403492	restées	-0.05294095
-3.8403492	droites	-0.05294095
-3.704677	ventre	-0.05294095
-3.8403492	serré	-0.05294095
-3.8403492	d'angoisse	-0.05294095
-3.8403492	détourne	-0.05294095
-3.555975	regards	-0.05294095
-3.704677	sait	-0.05294095
-3.8403492	diable	-0.05294095
-3.8403492	sorte	-0.05294095
-3.8403492	bruit	-0.05294095
-3.8403492	pareil	-0.05294095
-3.8403492	sifflement	-0.05294095
-3.8403492	perceptible	-0.05294095
-3.8403492	appel	-0.05294095
-3.8403492	vigilance	-0.05294095
-3.8403492	républicains	-0.05294095
-3.704677	tes	-0.05294095
-3.8403492	rondeurs	-0.05294095
-3.8403492	embonpoint	-0.05294095
-3.8403492	souvenirs	-0.05294095
-3.8403492	républicaine	-0.05294095
-3.8403492	gaz	-0.05294095
-3.8403492	dégagés	-0.05294095
-3.8403492	causèrent	-0.05294095
-3.8403492	graves	-0.05294095
-3.8403492	incommodités	-0.05294095
-3.8403492	auriez	-0.05294095
-3.8403492	remarqué	-0.05294095
-3.8403492	frappé	-0.05294095
-3.704677	l’immense	-0.05294095
-3.8403492	fatigue	-0.05294095
-3.8403492	creusait	-0.05294095
-3.704677	minutes	-0.05294095
-3.8403492	s'étaient	-0.05294095
-3.8403492	écoulées	-0.05294095
-3.8403492	lorsqu'il	-0.05294095
-3.8403492	permettre	-0.05294095
-3.8403492	chance	-0.05294095
-3.8403492	fin	-0.05294095
-3.8403492	séances	-0.05294095
-3.8403492	supplémentaires	-0.05294095
-3.8403492	l'espace	-0.05294095
-3.8403492	hantait	-0.05294095
-3.8403492	l'effrayait	-0.05294095
-3.8403492	réunissent	-0.05294095
-3.8403492	vivent	-0.05294095
-3.8403492	exactement	-0.05294095
-3.704677	contraire	-0.05294095
-3.8403492	soleil	-0.05294095
-3.8403492	s’enveloppait	-0.05294095
-3.704677	légère	-0.05294095
-3.8403492	buée	-0.05294095
-3.8403492	d’or	-0.05294095
-3.8403492	regardez	-0.05294095
-3.8403492	madame	-0.05294095
-3.8403492	croûte	-0.05294095
-3.8403492	conseillerais	-0.05294095
-3.8403492	toutefois	-0.05294095
-3.8403492	d’ouvrir	-0.05294095
-3.8403492	parapluie	-0.05294095
-3.8403492	colonialistes	-0.05294095
-3.8403492	lâcheront	-0.05294095
-3.8403492	facilement	-0.05294095
-3.8403492	tel	-0.05294095
-3.8403492	morceau	-0.05294095
-3.8403492	reçut	-0.05294095
-3.704677	instructions	-0.05294095
-3.8403492	transmission	-0.05294095
-3.8403492	neurale	-0.05294095
-3.8403492	exprimé	-0.05294095
-3.8403492	doutes	-0.05294095
-3.8403492	inquiétudes	-0.05294095
-3.8403492	attentes	-0.05294095
-3.8403492	d’autant	-0.05294095
-3.8403492	faim	-0.05294095
-3.8403492	zones	-0.05294095
-3.8403492	d'ombre	-0.05294095
-3.8403492	subsistaient	-0.05294095
-3.8403492	d'importance	-0.05294095
-3.8403492	l'équipe	-0.05294095
-3.704677	terrain	-0.05294095
-3.8403492	jouaient	-0.05294095
-3.8403492	souvent	-0.05294095
-3.8403492	rencontrés	-0.05294095
-3.8403492	mise	-0.05294095
-3.8403492	caisson	-0.05294095
-3.704677	siège	-0.05294095
-3.8403492	décrété	-0.05294095
-3.8403492	haut	-0.05294095
-3.8403492	château	-0.05294095
-3.8403492	dominant	-0.05294095
-3.8403492	essence	-0.05294095
-3.8403492	souffre	-0.05294095
-3.8403492	compromis	-0.05294095
-3.704677	quel	-0.05294095
-3.555975	serait	-0.05294095
-3.8403492	sérieux	-0.05294095
-3.704677	rendu	-0.05294095
-3.8403492	commerce	-0.05294095
-3.397926	soit	-0.05294095
-3.8403492	présente	-0.05294095
-3.8403492	victoire	-0.05294095
-3.8403492	l'indispensable	-0.05294095
-3.8403492	vertu	-0.05294095
-3.8403492	persévérance	-0.05294095
-3.8403492	cimenter	-0.05294095
-3.8403492	recroquevillé	-0.05294095
-3.704677	épaules	-0.05294095
-3.8403492	voulu	-0.05294095
-3.704677	étape	-0.05294095
-3.8403492	obligatoire	-0.05294095
-3.8403492	chaises	-0.05294095
-3.8403492	chrétiens	-0.05294095
-3.8403492	garder	-0.05294095
-3.8403492	rails	-0.05294095
-3.2822974	quelque	-0.05294095
-3.8403492	parent	-0.05294095
-3.8403492	laissé	-0.05294095
-3.8403492	recevra	-0.05294095
-3.8403492	chèque	-0.05294095
-3.8403492	rio	-0.05294095
-3.8403492	collection	-0.05294095
-3.8403492	dieux	-0.05294095
-3.8403492	existe	-0.05294095
-3.8403492	plagiat	-0.05294095
-3.8403492	mariage	-0.05294095
-3.8403492	n'opère	-0.05294095
-3.8403492	changement	-0.05294095
-3.8403492	époux	-0.05294095
-3.8403492	borne	-0.05294095
-3.704677	d'identification	-0.05294095
-3.8403492	clignota	-0.05294095
-3.8403492	signala	-0.05294095
-3.8403492	procédure	-0.05294095
-3.704677	gros	-0.05294095
-3.8403492	unités	-0.05294095
-3.8403492	allemandes	-0.05294095
-3.8403492	appelé	-0.05294095
-3.8403492	normandie	-0.05294095
-3.8403492	soigneux	-0.05294095
-3.8403492	réparent	-0.05294095
-3.704677	habits	-0.05294095
-3.8403492	ingrats	-0.05294095
-3.8403492	pareilles	-0.05294095
-3.8403492	talent	-0.05294095
-3.8403492	créativité	-0.05294095
-3.555975	nouvelle	-0.05294095
-3.8403492	attaque	-0.05294095
-3.8403492	gardes	-0.05294095
-3.8403492	repoussée	-0.05294095
-3.8403492	bon	-0.05294095
-3.8403492	faiseur	-0.05294095
-3.704677	intelligence	-0.05294095
-3.704677	mal	-0.05294095
-3.8403492	s'habituer	-0.05294095
-3.8403492	découvre	-0.05294095
-3.8403492	confiance	-0.05294095
-3.8403492	l'entraide	-0.05294095
-3.8403492	l'égoïsme	-0.05294095
-3.8403492	paquebot	-0.05294095
-3.8403492	terminait	-0.05294095
-3.8403492	manoeuvre	-0.05294095
-3.8403492	d’accostage	-0.05294095
-3.8403492	réaliser	-0.05294095
-3.8403492	voyait	-0.05294095
-3.8403492	collectivité	-0.05294095
-3.8403492	territoriale	-0.05294095
-3.8403492	exercer	-0.05294095
-3.8403492	tutelle	-0.05294095
-3.8403492	affaires	-0.05294095
-3.8403492	spatiales	-0.05294095
-3.8403492	t	-0.05294095
-3.8403492	évaluations	-0.05294095
-3.8403492	informatiques	-0.05294095
-3.704677	l’ont	-0.05294095
-3.8403492	confirmé	-0.05294095
-3.8403492	exercent	-0.05294095
-3.8403492	activité	-0.05294095
-3.704677	librement	-0.16572244
-3.8403492	trouvai	-0.05294095
-3.1910708	place	-0.12478708
-3.8403492	curieux	-0.05294095
-3.8403492	sergent	-0.05294095
-3.704677	devenir	-0.05294095
-3.8403492	quête	-0.05294095
-3.8403492	journaliste	-0.05294095
-3.8403492	avocat	-0.05294095
-3.8403492	réveilla	-0.05294095
-3.8403492	sursaut	-0.05294095
-3.704677	consulta	-0.05294095
-3.8403492	montre	-0.05294095
-3.8403492	lave	-0.05294095
-3.8403492	d’avance	-0.05294095
-3.8403492	soupçon	-0.05294095
-3.8403492	éminents	-0.05294095
-3.704677	collaborateurs	-0.05294095
-3.8403492	démarche	-0.05294095
-3.8403492	vive	-0.05294095
-3.8403492	altière	-0.05294095
-3.8403492	s'accordait	-0.05294095
-3.8403492	radieux	-0.05294095
-3.704677	route	-0.05294095
-3.8403492	mendier	-0.05294095
-3.704677	patrie	-0.05294095
-3.704677	grasses	-0.12478708
-3.8403492	cacahuètes	-0.05294095
-3.8403492	nommés	-0.05294095
-3.8403492	conforme	-0.05294095
-3.8403492	couchant	-0.05294095
-3.8403492	crépuscule	-0.05294095
-3.8403492	d’autre	-0.05294095
-3.8403492	conséquence	-0.05294095
-3.8403492	mauvaise	-0.05294095
-3.8403492	disposition	-0.05294095
-3.8403492	facile	-0.05294095
-3.8403492	prévoir	-0.05294095
-3.8403492	l’atteste	-0.05294095
-3.8403492	mariés	-0.05294095
-3.8403492	prétendants	-0.05294095
-3.8403492	manquent	-0.05294095
-3.8403492	l’assure	-0.05294095
-3.8403492	cataclysme	-0.05294095
-3.8403492	s’est	-0.05294095
-3.8403492	abattu	-0.05294095
-3.8403492	parents	-0.05294095
-3.8403492	mettre	-0.05294095
-3.704677	oeuvre	-0.05294095
-3.8403492	sale	-0.05294095
-3.8403492	volaille	-0.05294095
-3.8403492	s’attaquer	-0.05294095
-3.704677	corps	-0.05294095
-3.8403492	l’a	-0.05294095
-3.8403492	naître	-0.05294095
-3.8403492	bouchers	-0.05294095
-3.8403492	assistée	-0.05294095
-3.8403492	escadrilles	-0.05294095
-3.8403492	chasseurs	-0.05294095
-3.8403492	bombardiers	-0.05294095
-3.8403492	hais	-0.05294095
-3.704677	littérature	-0.05294095
-3.8403492	chuchotements	-0.05294095
-3.8403492	l’ignorance	-0.05294095
-3.8403492	choses	-0.05294095
-3.8403492	considérable	-0.05294095
-3.8403492	attendons	-0.05294095
-3.8403492	kiosque	-0.05294095
-3.8403492	bourse	-0.05294095
-3.8403492	statue	-0.05294095
-3.8403492	délai	-0.05294095
-3.8403492	bulletins	-0.05294095
-3.8403492	secrets	-0.05294095
-3.8403492	destitution	-0.05294095
-3.397926	prendre	-0.05294095
-3.8403492	chefs	-0.05294095
-3.8403492	bande	-0.05294095
-3.8403492	choisir	-0.05294095
-3.8403492	barre	-0.05294095
-3.8403492	9	-0.05294095
-3.704677	mars	-0.05294095
-3.8403492	attaquer	-0.05294095
-3.8403492	entremont	-0.05294095
-3.8403492	délivrer	-0.05294095
-3.8403492	d’andrea	-0.05294095
-3.8403492	journées	-0.05294095
-3.8403492	tranquilles	-0.05294095
-3.8403492	dépensent	-0.05294095
-3.8403492	fortune	-0.05294095
-3.8403492	gagnent	-0.05294095
-3.555975	armée	-0.05294095
-3.8403492	d'amendement	-0.05294095
-3.704677	connaissaient	-0.05294095
-3.8403492	meublée	-0.05294095
-3.8403492	décadenassa	-0.05294095
-3.8403492	trams	-0.05294095
-3.8403492	voitures	-0.05294095
-3.704677	13	-0.12478708
-3.8403492	péril	-0.05294095
-3.8403492	n'était	-0.05294095
-3.8403492	vouloir	-0.05294095
-3.555975	savoir	-0.2757543
-3.8403492	pendus	-0.05294095
-3.704677	portes	-0.05294095
-3.8403492	moutons	-0.05294095
-3.8403492	fesses	-0.05294095
-3.8403492	talées	-0.05294095
-3.8403492	sert	-0.05294095
-3.8403492	viatiques	-0.05294095
-3.704677	renseignements	-0.05294095
-3.8403492	frères	-0.05294095
-3.8403492	côte	-0.05294095
-3.8403492	conçoit	-0.05294095
-3.8403492	perfectionner	-0.05294095
-3.8403492	mécaniciens	-0.05294095
-3.8403492	médecins	-0.05294095
-3.8403492	intendants	-0.05294095
-3.8403492	capitaines	-0.05294095
-3.8403492	vieillard	-0.05294095
-3.8403492	retombe	-0.05294095
-3.8403492	enfance	-0.05294095
-3.8403492	revenues	-0.05294095
-3.8403492	l’humidité	-0.05294095
-3.8403492	massif	-0.05294095
-3.8403492	tenait	-0.05294095
-3.8403492	fermement	-0.05294095
-3.8403492	qu'inutilement	-0.05294095
-3.8403492	dedans	-0.05294095
-3.8403492	immondes	-0.05294095
-3.8403492	cherche	-0.05294095
-3.8403492	surprendre	-0.05294095
-3.8403492	lézards	-0.05294095
-3.8403492	seule	-0.05294095
-3.8403492	d'eux	-0.05294095
-3.8403492	reconnue	-0.05294095
-3.8403492	égale	-0.05294095
-3.8403492	replongez	-0.05294095
-3.8403492	néant	-0.05294095
-3.8403492	transformé	-0.05294095
-3.8403492	put	-0.05294095
-3.8403492	l'avoir	-0.05294095
-3.8403492	durement	-0.05294095
-3.8403492	heurté	-0.05294095
-3.8403492	télévision	-0.05294095
-3.8403492	puisent	-0.05294095
-3.8403492	source	-0.05294095
-3.8403492	intarissable	-0.05294095
-3.8403492	amis	-0.05294095
-3.8403492	d’escale	-0.05294095
-3.8403492	escale	-0.05294095
-3.8403492	eric	-0.05294095
-3.8403492	d’avant	-0.05294095
-3.704677	poste	-0.05294095
-3.8403492	aguerri	-0.05294095
-3.8403492	sentait	-0.05294095
-3.8403492	désespérément	-0.05294095
-3.8403492	ordonnances	-0.05294095
-3.8403492	prises	-0.05294095
-3.8403492	d'état	-0.05294095
-3.704677	faites	-0.05294095
-3.704677	jeunes	-0.05294095
-3.8403492	irez	-0.05294095
-3.704677	laissa	-0.05294095
-3.8403492	échapper	-0.05294095
-3.8403492	d’exaspération	-0.05294095
-3.8403492	semaine	-0.05294095
-3.8403492	peignait	-0.05294095
-3.8403492	d’assises	-0.05294095
-3.8403492	prévenu	-0.05294095
-3.8403492	juges	-0.05294095
-3.8403492	avocats	-0.05294095
-3.8403492	manger	-0.05294095
-3.704677	presque	-0.05294095
-3.8403492	cueillir	-0.05294095
-3.8403492	dattier	-0.05294095
-3.555975	part	-0.05294095
-3.8403492	océans	-0.05294095
-3.8403492	l’atlantique	-0.05294095
-3.8403492	l’indien	-0.05294095
-3.8403492	pacifique	-0.05294095
-3.8403492	représentent	-0.05294095
-3.8403492	cieux	-0.05294095
-3.8403492	climats	-0.05294095
-3.8403492	marché	-0.05294095
-3.8403492	offert	-0.05294095
-3.8403492	vendeurs	-0.05294095
-3.8403492	vaste	-0.05294095
-3.8403492	émile	-0.05294095
-3.8403492	idéal	-0.05294095
-3.8403492	s'est	-0.05294095
-3.8403492	ralliée	-0.05294095
-3.704677	génie	-0.05294095
-3.8403492	durée	-0.05294095
-3.8403492	législature	-0.05294095
-3.8403492	s'essuya	-0.05294095
-3.8403492	extirpa	-0.05294095
-3.8403492	oeillère	-0.05294095
-3.8403492	d'analyse	-0.05294095
-3.8403492	poche	-0.05294095
-3.8403492	disputera	-0.05294095
-3.8403492	timbale	-0.05294095
-3.704677	fer	-0.12478708
-3.8403492	attachée	-0.05294095
-3.8403492	fontaine	-0.05294095
-3.8403492	l’objet	-0.05294095
-3.704677	trop	-0.05294095
-3.8403492	pût	-0.05294095
-3.8403492	rassurer	-0.05294095
-3.8403492	usage	-0.05294095
-3.8403492	guide	-0.05294095
-3.8403492	permanent	-0.05294095
-3.704677	réflexion	-0.16572244
-3.8403492	l'atteindre	-0.05294095
-3.8403492	d'abord	-0.05294095
-3.8403492	pauvreté	-0.05294095
-3.8403492	endroit	-0.05294095
-3.704677	sorti	-0.05294095
-3.8403492	soufflet	-0.05294095
-3.8403492	saupoudré	-0.05294095
-3.8403492	vêtements	-0.05294095
-3.8403492	traduirait	-0.05294095
-3.8403492	passions	-0.05294095
-3.8403492	soulève	-0.05294095
-3.8403492	cause	-0.05294095
-3.8403492	populaire	-0.05294095
-3.8403492	dissoute	-0.05294095
-3.704677	l'exercice	-0.05294095
-3.555975	pouvoirs	-0.05294095
-3.8403492	exceptionnels	-0.05294095
-3.8403492	assisté	-0.05294095
-3.704677	signe	-0.05294095
-3.8403492	franchise	-0.05294095
-3.8403492	hésitant	-0.05294095
-3.8403492	incohérent	-0.05294095
-3.8403492	compris	-0.05294095
-3.8403492	cultivés	-0.05294095
-3.8403492	véranda	-0.05294095
-3.8403492	groupe	-0.05294095
-3.8403492	lève	-0.05294095
-3.8403492	assister	-0.05294095
-3.8403492	commissaires	-0.05294095
-3.8403492	pensée	-0.05294095
-3.8403492	l’esprit	-0.05294095
-3.8403492	vite	-0.05294095
-3.8403492	arrivée	-0.05294095
-3.704677	brillant	-0.05294095
-3.8403492	figure	-0.05294095
-3.8403492	uniquement	-0.05294095
-3.8403492	moitié	-0.05294095
-3.8403492	double	-0.05294095
-3.8403492	cacher	-0.05294095
-3.704677	profession	-0.05294095
-3.8403492	charbonniers	-0.05294095
-3.8403492	l’idée	-0.05294095
-3.8403492	m’était	-0.05294095
-3.8403492	venue	-0.05294095
-3.8403492	éléphants	-0.05294095
-3.8403492	vulgaire	-0.05294095
-3.8403492	marchandise	-0.05294095
-3.8403492	lenteur	-0.05294095
-3.8403492	blessait	-0.05294095
-3.8403492	orgueil	-0.05294095
-3.8403492	autrement	-0.05294095
-3.704677	désormais	-0.05294095
-3.8403492	vivra	-0.05294095
-3.8403492	cloîtré	-0.05294095
-3.8403492	frontières	-0.05294095
-3.8403492	périra	-0.05294095
-3.8403492	d’anémie	-0.05294095
-3.8403492	raconter	-0.05294095
-3.704677	arrivé	-0.16572244
-3.8403492	rôle	-0.05294095
-3.704677	mineur	-0.05294095
-3.704677	peur	-0.05294095
-3.8403492	interpréter	-0.05294095
-3.8403492	analyser	-0.05294095
-3.8403492	chers	-0.05294095
-3.8403492	l’aime	-0.05294095
-3.8403492	passionnément	-0.05294095
-3.8403492	premières	-0.05294095
-3.8403492	années	-0.05294095
-3.8403492	xxe	-0.05294095
-3.8403492	vint	-0.05294095
-3.8403492	désillusion	-0.05294095
-3.8403492	déposer	-0.05294095
-3.8403492	requête	-0.05294095
-3.8403492	flancs	-0.05294095
-3.704677	l’un	-0.05294095
-3.8403492	complètement	-0.05294095
-3.8403492	l’éloquence	-0.05294095
-3.8403492	palefreniers	-0.05294095
-3.8403492	émigrant	-0.05294095
-3.8403492	froid	-0.05294095
-3.8403492	calculateur	-0.05294095
-3.8403492	déroulent	-0.05294095
-3.8403492	majesté	-0.05294095
-3.8403492	puissantes	-0.05294095
-3.8403492	fournissons	-0.05294095
-3.8403492	d'oeuvre	-0.05294095
-3.8403492	encaissent	-0.05294095
-3.8403492	profits	-0.05294095
-3.8403492	s’arrêta	-0.05294095
-3.8403492	tendant	-0.05294095
-3.8403492	toucha	-0.05294095
-3.8403492	étoffe	-0.05294095
-3.8403492	assure	-0.05294095
-3.8403492	représentation	-0.05294095
-3.8403492	collectivités	-0.05294095
-3.8403492	territoriales	-0.05294095
-3.8403492	inutile	-0.05294095
-3.8403492	refaire	-0.05294095
-3.8403492	ronger	-0.05294095
-3.8403492	sangs	-0.05294095
-3.8403492	âgé	-0.05294095
-3.8403492	piétinant	-0.05294095
-3.8403492	l’opulence	-0.05294095
-3.8403492	richesse	-0.05294095
-3.8403492	future	-0.05294095
-3.8403492	dépendait	-0.05294095
-3.8403492	parla	-0.05294095
-3.8403492	analyseur	-0.05294095
-3.8403492	vocal	-0.05294095
-3.8403492	électrodes	-0.05294095
-3.8403492	collées	-0.05294095
-3.8403492	poitrine	-0.05294095
-3.8403492	ponts	-0.05294095
-3.8403492	salons	-0.05294095
-3.8403492	escaliers	-0.05294095
-3.8403492	d’accompagnateurs	-0.05294095
-3.8403492	voyageurs	-0.05294095
-3.8403492	m’embarquer	-0.05294095
-3.8403492	prochainement	-0.05294095
-3.8403492	civil	-0.05294095
-3.555975	haute	-0.12478708
-3.704677	présidée	-0.16572244
-3.8403492	l’assemblée	-0.05294095
-3.8403492	respire	-0.05294095
-3.8403492	l’atmosphère	-0.05294095
-3.8403492	salles	-0.05294095
-3.8403492	jeux	-0.05294095
-3.8403492	note	-0.05294095
-3.8403492	plaintive	-0.05294095
-3.8403492	ondulait	-0.05294095
-3.8403492	répercutait	-0.05294095
-3.8403492	partout	-0.05294095
-3.8403492	gérant	-0.05294095
-3.8403492	prison	-0.05294095
-3.8403492	mérité	-0.05294095
-3.8403492	changer	-0.05294095
-3.8403492	linge	-0.05294095
-3.8403492	bouche	-0.05294095
-3.8403492	pâteuse	-0.05294095
-3.704677	songea	-0.05294095
-3.8403492	relâchement	-0.05294095
-3.8403492	mécanicien	-0.05294095
-3.8403492	chaudronnier	-0.05294095
-3.8403492	maçon	-0.05294095
-3.8403492	vide	-0.05294095
-3.8403492	d’angoissant	-0.05294095
-3.555975	façon	-0.05294095
-3.704677	d’agir	-0.05294095
-3.555975	paraît	-0.05294095
-3.8403492	procureur	-0.05294095
-3.8403492	cassation	-0.05294095
-3.8403492	alla	-0.05294095
-3.397926	servir	-0.09460813
-3.704677	verres	-0.05294095
-3.8403492	bourbon	-0.05294095
-3.8403492	permission	-0.05294095
-3.8403492	d’enjamber	-0.05294095
-3.8403492	refuges	-0.05294095
-3.8403492	d’entamer	-0.05294095
-3.8403492	trottoirs	-0.05294095
-3.8403492	terrible	-0.05294095
-3.8403492	stupéfaction	-0.05294095
-3.8403492	commencement	-0.05294095
-3.8403492	d'avoir	-0.05294095
-3.8403492	besoin	-0.05294095
-3.8403492	telles	-0.05294095
-3.8403492	tribunes	-0.05294095
-3.704677	s'adossa	-0.05294095
-3.8403492	alluma	-0.05294095
-3.8403492	s’agissant	-0.05294095
-3.8403492	échéances	-0.05294095
-3.8403492	électorales	-0.05294095
-3.8403492	j’aurai	-0.05294095
-3.8403492	l’occasion	-0.05294095
-3.8403492	d’exprimer	-0.05294095
-3.8403492	personnels	-0.05294095
-3.8403492	l'angélisme	-0.05294095
-3.8403492	aberrant	-0.05294095
-3.8403492	vêtu	-0.05294095
-3.8403492	réfectoire	-0.05294095
-3.8403492	j’essaye	-0.05294095
-3.8403492	m’en	-0.05294095
-3.8403492	expliquer	-0.05294095
-3.8403492	gardien	-0.05294095
-3.8403492	incompatibilités	-0.05294095
-3.8403492	réfléchissez	-0.05294095
-3.8403492	méré	-0.05294095
-3.8403492	mettez	-0.05294095
-3.8403492	bonheur	-0.05294095
-3.8403492	bottin	-0.05294095
-3.8403492	mondain	-0.05294095
-3.8403492	avare	-0.05294095
-3.8403492	j’aime	-0.05294095
-3.8403492	aises	-0.05294095
-3.8403492	irons	-0.05294095
-3.8403492	taxi	-0.05294095
-3.8403492	armait	-0.05294095
-3.555975	fallait	-0.05294095
-3.8403492	naturellement	-0.05294095
-3.8403492	absolument	-0.05294095
-3.8403492	impossible	-0.05294095
-3.8403492	quoi	-0.05294095
-3.8403492	possédons	-0.05294095
-3.8403492	empire	-0.05294095
-3.8403492	physionomie	-0.05294095
-3.8403492	démentait	-0.05294095
-3.8403492	l’impression	-0.05294095
-3.8403492	produisait	-0.05294095
-3.8403492	annonce	-0.05294095
-3.8403492	lèvent	-0.05294095
-3.8403492	mettent	-0.05294095
-3.8403492	charles	-0.05294095
-3.8403492	ier	-0.05294095
-3.8403492	roi	-0.05294095
-3.8403492	d'angleterre	-0.05294095
-3.8403492	magiques	-0.05294095
-3.8403492	l’âge	-0.05294095
-3.8403492	moderne	-0.05294095
-3.8403492	flamboient	-0.05294095
-3.8403492	l’entrée	-0.05294095
-3.8403492	l’étonnement	-0.05294095
-3.8403492	l’horreur	-0.05294095
-3.8403492	faces	-0.05294095
-3.8403492	m’entouraient	-0.05294095
-3.8403492	parvint	-0.05294095
-3.8403492	preuve	-0.05294095
-3.704677	possédait	-0.05294095
-3.8403492	ressources	-0.05294095
-3.8403492	soumis	-0.05294095
-3.8403492	ratification	-0.05294095
-3.8403492	signataires	-0.05294095
-3.8403492	l’armement	-0.05294095
-3.8403492	attend	-0.05294095
-3.8403492	compagnons	-0.05294095
-3.704677	comprend	-0.05294095
-3.704677	armes	-0.05294095
-3.8403492	légères	-0.05294095
-3.8403492	n’ai	-0.05294095
-3.8403492	l’écu	-0.05294095
-3.8403492	s’occupaient	-0.05294095
-3.8403492	l’entretien	-0.05294095
-3.8403492	faisaient	-0.05294095
-3.8403492	vol	-0.05294095
-3.8403492	s’était	-0.05294095
-3.8403492	habitué	-0.05294095
-3.8403492	silence	-0.05294095
-3.8403492	ralentirent	-0.05294095
-3.8403492	s’échappa	-0.05294095
-3.8403492	l’orifice	-0.05294095
-3.8403492	formé	-0.05294095
-3.8403492	l’engagement	-0.05294095
-3.8403492	l'immense	-0.05294095
-3.8403492	majorité	-0.05294095
-3.8403492	vaincu	-0.05294095
-3.8403492	l'oppresseur	-0.05294095
-3.8403492	aujourd’hui	-0.05294095
-3.8403492	commença	-0.05294095
-3.8403492	mystère	-0.05294095
-3.8403492	légende	-0.05294095
-3.8403492	accepter	-0.05294095
-3.555975	animal	-0.05294095
-3.8403492	comparaît	-0.05294095
-3.704677	février	-0.05294095
-3.8403492	d'assises	-0.05294095
-3.8403492	revins	-0.05294095
-3.8403492	couchait	-0.05294095
-3.8403492	section	-0.05294095
-3.8403492	individu	-0.05294095
-3.8403492	s'en	-0.05294095
-3.8403492	attribuer	-0.05294095
-3.8403492	nommé	-0.05294095
-3.8403492	fronton	-0.05294095
-3.8403492	s'inscrit	-0.05294095
-3.8403492	satisfait	-0.05294095
-3.8403492	d’agrandir	-0.05294095
-3.8403492	territoire	-0.05294095
-3.8403492	chasse	-0.05294095
-3.8403492	d’égypte	-0.05294095
-3.8403492	d’algérie	-0.05294095
-3.8403492	nourriture	-0.05294095
-3.8403492	pain	-0.05294095
-3.8403492	alfred	-0.05294095
-3.8403492	dreyfus	-0.05294095
-3.8403492	condamné	-0.05294095
-3.8403492	déportation	-0.05294095
-3.8403492	opérateur	-0.05294095
-3.8403492	s’acharnait	-0.05294095
-3.8403492	scène	-0.05294095
-3.8403492	demie	-0.05294095
-3.8403492	descente	-0.05294095
-3.8403492	atteignent	-0.05294095
-3.8403492	qu’alertent	-0.05294095
-3.704677	chiens	-0.05294095
-3.8403492	rigueur	-0.05294095
-3.8403492	entière	-0.05294095
-3.8403492	fera	-0.05294095
-3.8403492	scandale	-0.05294095
-3.8403492	but	-0.05294095
-3.8403492	d’arriver	-0.05294095
-3.704677	repartir	-0.05294095
-3.8403492	peaux	-0.05294095
-3.8403492	bique	-0.05294095
-3.8403492	manqueront	-0.05294095
-3.8403492	hiver	-0.05294095
-3.8403492	renouvelle	-0.05294095
-3.8403492	tiers	-0.05294095
-3.8403492	auraient	-0.05294095
-3.704677	pu	-0.05294095
-3.704677	madagascar	-0.16572244
-3.8403492	renseigner	-0.05294095
-3.8403492	pense	-0.05294095
-3.8403492	l’aurais	-0.05294095
-3.8403492	transformation	-0.05294095
-3.8403492	échouée	-0.05294095
-3.8403492	hautement	-0.05294095
-3.8403492	inadaptable	-0.05294095
-3.704677	pourquoi	-0.05294095
-3.8403492	d'exploration	-0.05294095
-3.8403492	restés	-0.05294095
-3.8403492	moquerie	-0.05294095
-3.8403492	ordre	-0.05294095
-3.8403492	dispersèrent	-0.05294095
-3.8403492	retournant	-0.05294095
-3.8403492	manutention	-0.05294095
-3.8403492	coula	-0.05294095
-3.8403492	bénéfice	-0.05294095
-3.8403492	finance	-0.05294095
-3.8403492	images	-0.05294095
-3.8403492	induit	-0.05294095
-3.8403492	bains	-0.05294095
-3.8403492	ami	-0.05294095
-3.8403492	fumeur	-0.05294095
-3.8403492	débarquer	-0.05294095
-3.8403492	ingéré	-0.05294095
-3.8403492	tellement	-0.05294095
-3.8403492	stimulants	-0.05294095
-3.8403492	échoua	-0.05294095
-3.8403492	d'autre	-0.05294095
-3.8403492	d'accepter	-0.05294095
-3.8403492	fermier	-0.05294095
-3.8403492	montra	-0.05294095
-3.555975	bonne	-0.05294095
-3.8403492	ventres	-0.05294095
-3.8403492	perroquet	-0.05294095
-3.8403492	amuser	-0.05294095
-3.8403492	sortis	-0.05294095
-3.8403492	opposée	-0.05294095
-3.8403492	prenaient	-0.05294095
-3.8403492	souche	-0.05294095
-3.8403492	terrienne	-0.05294095
-3.8403492	s'oriente	-0.05294095
-3.8403492	négoce	-0.05294095
-3.8403492	voudrait	-0.05294095
-3.8403492	tolérer	-0.05294095
-3.8403492	tyrannie	-0.05294095
-3.8403492	pareille	-0.05294095
-3.8403492	partir	-0.05294095
-3.704677	porté	-0.05294095
-3.8403492	sentiment	-0.05294095
-3.8403492	futilité	-0.05294095
-3.8403492	onze	-0.05294095
-3.8403492	matinée	-0.05294095
-3.555975	terminée	-0.12478708
-3.8403492	repassent	-0.05294095
-3.8403492	malin	-0.05294095
-3.8403492	vertueux	-0.05294095
-3.8403492	désertent	-0.05294095
-3.8403492	habités	-0.05294095
-3.8403492	terres	-0.05294095
-3.8403492	ingrates	-0.05294095
-3.8403492	exhale	-0.05294095
-3.8403492	senteurs	-0.05294095
-3.8403492	s’être	-0.05294095
-3.8403492	préoccupé	-0.05294095
-3.8403492	rechercher	-0.05294095
-3.8403492	tombée	-0.05294095
-3.8403492	recevait	-0.05294095
-3.8403492	présence	-0.05294095
-3.8403492	toucher	-0.05294095
-3.8403492	démontre	-0.05294095
-3.8403492	générosité	-0.05294095
-3.8403492	lorsqu’il	-0.05294095
-3.8403492	parité	-0.05294095
-3.704677	prise	-0.05294095
-3.8403492	bruxelles	-0.05294095
-3.8403492	1911	-0.05294095
-3.8403492	solvay	-0.05294095
-3.8403492	permettez	-0.05294095
-3.8403492	souffler	-0.05294095
-3.704677	légèrement	-0.05294095
-3.8403492	l'esprit	-0.05294095
-3.8403492	d'aventure	-0.05294095
-3.8403492	risque	-0.05294095
-3.8403492	disparaître	-0.05294095
-3.8403492	casquette	-0.05294095
-3.8403492	belles	-0.05294095
-3.8403492	casquettes	-0.05294095
-3.8403492	fraîches	-0.05294095
-3.8403492	valant	-0.05294095
-3.8403492	cher	-0.05294095
-3.8403492	chiffon	-0.05294095
-3.8403492	sépare	-0.05294095
-3.8403492	box	-0.05294095
-3.8403492	famille	-0.05294095
-3.8403492	chinois	-0.05294095
-3.8403492	s’inclina	-0.05294095
-3.8403492	respectueusement	-0.05294095
-3.704677	l’heure	-0.05294095
-3.8403492	regardent	-0.05294095
-3.8403492	bousculade	-0.05294095
-3.8403492	d’égoïstes	-0.05294095
-3.8403492	croyait	-0.05294095
-3.8403492	beau	-0.05294095
-3.8403492	n’intéresse	-0.05294095
-3.8403492	echanger	-0.05294095
-3.8403492	reposant	-0.05294095
-3.8403492	d’utiliser	-0.05294095
-3.8403492	larynx	-0.05294095
-3.8403492	verras	-0.05294095
-3.8403492	apporté	-0.05294095
-3.8403492	rassuraient	-0.05294095
-3.8403492	annonçâmes	-0.05294095
-3.8403492	malheur	-0.05294095
-3.8403492	détresse	-0.05294095
-3.8403492	hospitalité	-0.05294095
-3.8403492	élémentaires	-0.05294095
-3.8403492	vivant	-0.05294095
-3.8403492	t'ont	-0.05294095
-3.8403492	blé	-0.05294095
-3.8403492	manoeuvres	-0.05294095
-3.8403492	policières	-0.05294095
-3.8403492	état	-0.05294095
-3.8403492	proposer	-0.05294095
-3.8403492	amendements	-0.05294095
-3.8403492	dispose	-0.05294095
-3.8403492	l'administration	-0.05294095
-3.704677	sent	-0.05294095
-3.704677	ici	-0.05294095
-3.8403492	paresse	-0.05294095
-3.8403492	élevée	-0.05294095
-3.8403492	dignité	-0.05294095
-3.8403492	revendication	-0.05294095
-3.8403492	enfermés	-0.05294095
-3.8403492	zinc	-0.05294095
-3.8403492	braves	-0.05294095
-3.8403492	précédé	-0.05294095
-3.8403492	l’ancêtre	-0.05294095
-3.8403492	dérobent	-0.05294095
-3.8403492	mollets	-0.05294095
-3.8403492	s'assit	-0.05294095
-3.8403492	tailleur	-0.05294095
-3.8403492	ferma	-0.05294095
-3.8403492	planta	-0.05294095
-3.8403492	bêche	-0.05294095
-3.8403492	saisit	-0.05294095
-3.8403492	vivement	-0.05294095
-3.8403492	jaquette	-0.05294095
-3.8403492	l’âme	-0.05294095
-3.704677	l’extrémisme	-0.05294095
-3.8403492	gare	-0.05294095
-3.8403492	damas	-0.05294095
-3.8403492	réellement	-0.05294095
-3.8403492	pleurer	-0.05294095
-3.8403492	enjambe	-0.05294095
-3.704677	tables	-0.09460813
-3.8403492	renverse	-0.05294095
-3.8403492	siphons	-0.05294095
-3.8403492	collet	-0.05294095
-3.8403492	gibraltar	-0.05294095
-3.8403492	doucement	-0.05294095
-3.8403492	s’amène	-0.05294095
-3.8403492	tressaillit	-0.05294095
-3.8403492	entendent	-0.05294095
-3.8403492	d’évolution	-0.05294095
-3.8403492	aboutie	-0.05294095
-3.8403492	d'observations	-0.05294095
-3.8403492	tiendront	-0.05294095
-3.8403492	miles	-0.05294095
-3.704677	point	-0.05294095
-3.8403492	d'impact	-0.05294095
-3.8403492	bombe	-0.05294095
-3.8403492	commencèrent	-0.05294095
-3.8403492	fâcher	-0.05294095
-3.704677	problème	-0.05294095
-3.8403492	solution	-0.05294095
-3.8403492	industrielle	-0.05294095
-3.704677	difficile	-0.05294095
-3.8403492	adulte	-0.05294095
-3.8403492	modifier	-0.05294095
-3.8403492	d’écrire	-0.05294095
-3.8403492	prit	-0.05294095
-3.8403492	mena	-0.05294095
-3.8403492	commencera	-0.05294095
-3.8403492	l’émigrant	-0.05294095
-3.8403492	levant	-0.05294095
-3.8403492	arbres	-0.05294095
-3.8403492	alignés	-0.05294095
-3.8403492	l’infini	-0.05294095
-3.8403492	voyagé	-0.05294095
-3.8403492	drogue	-0.05294095
-3.8403492	nommer	-0.05294095
-3.8403492	réveillés	-0.05294095
-3.8403492	techniciens	-0.05294095
-3.704677	déclara	-0.05294095
-3.8403492	s’interrompre	-0.05294095
-3.704677	partis	-0.05294095
-3.8403492	groupements	-0.05294095
-3.8403492	politiques	-0.05294095
-3.8403492	concourent	-0.05294095
-3.8403492	l'expression	-0.05294095
-3.8403492	forgeron	-0.05294095
-3.8403492	ébéniste	-0.05294095
-3.8403492	combat	-0.05294095
-3.704677	s’engage	-0.16572244
-3.8403492	compatriote	-0.05294095
-3.8403492	voluptueux	-0.05294095
-3.704677	l’univers	-0.05294095
-3.704677	libre	-0.05294095
-3.8403492	immenses	-0.05294095
-3.8403492	donné	-0.05294095
-3.8403492	achètera	-0.05294095
-3.8403492	marchandises	-0.05294095
-3.8403492	phrase	-0.05294095
-3.8403492	singulièrement	-0.05294095
-3.8403492	appropriée	-0.05294095
-3.8403492	celles	-0.05294095
-3.8403492	officiers	-0.05294095
-3.8403492	marine	-0.05294095
-3.8403492	cours	-0.05294095
-3.8403492	fauteuil	-0.05294095
-3.8403492	plage	-0.05294095
-3.8403492	l'un	-0.05294095
-3.8403492	nommera	-0.05294095
-3.8403492	l'économie	-0.05294095
-3.8403492	concertée	-0.05294095
-3.8403492	lien	-0.05294095
-3.8403492	lança	-0.05294095
-3.8403492	vidéo	-0.05294095
-3.8403492	proposée	-0.05294095
-3.8403492	l’inspection	-0.05294095
-3.8403492	regagnent	-0.05294095
-3.8403492	niche	-0.05294095
-3.8403492	dénouement	-0.05294095
-3.555975	geste	-0.05294095
-3.8403492	inouï	-0.05294095
-3.704677	compte	-0.05294095
-3.8403492	intégral	-0.05294095
-3.8403492	débats	-0.05294095
-3.8403492	publié	-0.05294095
-3.8403492	journal	-0.05294095
-3.8403492	officiel	-0.05294095
-3.8403492	murs	-0.05294095
-3.8403492	goguette	-0.05294095
-3.8403492	caréna	-0.05294095
-3.8403492	doublage	-0.05294095
-3.8403492	lorsque	-0.05294095
-3.8403492	ralentit	-0.05294095
-3.8403492	demander	-0.05294095
-3.8403492	jusqu’où	-0.05294095
-3.8403492	publics	-0.05294095
-3.8403492	l’inutilité	-0.05294095
-3.8403492	sédentaires	-0.05294095
-3.8403492	n’êtes	-0.05294095
-3.8403492	fumier	-0.05294095
-3.8403492	inconnu	-0.05294095
-3.8403492	8	-0.05294095
-3.8403492	célèbre	-0.05294095
-3.8403492	indispensables	-0.05294095
-3.8403492	s’écarta	-0.05294095
-3.8403492	indiqua	-0.05294095
-3.8403492	sofa	-0.05294095
-3.8403492	éreinté	-0.05294095
-3.8403492	science	-0.05294095
-3.8403492	vitesse	-0.05294095
-3.8403492	zone	-0.05294095
-3.8403492	retour	-0.05294095
-3.8403492	chargée	-0.05294095
-3.8403492	d'appareils	-0.05294095
-3.704677	personnes	-0.05294095
-3.8403492	trouvaient	-0.05294095
-3.8403492	disséminées	-0.05294095
-3.8403492	sentirait	-0.05294095
-3.8403492	mauvais	-0.05294095
-3.8403492	j’entendis	-0.05294095
-3.8403492	bourdonnement	-0.05294095
-3.8403492	vexé	-0.05294095
-3.8403492	professionnel	-0.05294095
-3.8403492	quotidien	-0.05294095
-3.8403492	fenêtres	-0.05294095
-3.8403492	s’éclairaient	-0.05294095
-3.8403492	allaient	-0.05294095
-3.8403492	replie	-0.05294095
-3.8403492	continuant	-0.05294095
-3.8403492	combattre	-0.05294095
-3.8403492	revers	-0.05294095
-3.8403492	correspondance	-0.05294095
-3.8403492	terminer	-0.05294095
-3.8403492	prof	-0.05294095
-3.8403492	collège	-0.05294095
-3.8403492	croirait	-0.05294095
-3.8403492	excuses	-0.05294095
-3.8403492	examine	-0.05294095
-3.8403492	réclamations	-0.05294095
-3.8403492	proclame	-0.05294095
-3.8403492	résultats	-0.05294095
-3.8403492	devrait	-0.05294095
-3.8403492	marque	-0.05294095
-3.8403492	pluriel	-0.05294095
-3.8403492	interrompu	-0.05294095
-3.8403492	tôt	-0.05294095
-3.8403492	tanguer	-0.05294095
-3.8403492	rouler	-0.05294095
-3.8403492	promène	-0.05294095
-3.8403492	boîte	-0.05294095
-3.8403492	surprenant	-0.05294095
-3.8403492	parcours	-0.05294095
-3.8403492	s'étonne	-0.05294095
-3.8403492	redressa	-0.05294095
-3.8403492	frotta	-0.05294095
-3.8403492	compassion	-0.05294095
-3.8403492	égard	-0.05294095
-3.8403492	caporal	-0.05294095
-3.8403492	actuel	-0.05294095
-3.8403492	m'y	-0.05294095
-3.8403492	aidé	-0.05294095
-3.8403492	prudent	-0.05294095
-3.8403492	sexes	-0.05294095
-3.8403492	élan	-0.05294095
-3.8403492	naïveté	-0.05294095
-3.8403492	confirmer	-0.05294095
-3.8403492	inadaptation	-0.05294095
-3.8403492	voyais	-0.05294095
-3.8403492	flairer	-0.05294095
-3.8403492	sacs	-0.05294095
-3.8403492	j’irais	-0.05294095
-3.8403492	tirer	-0.05294095
-3.8403492	oreilles	-0.05294095
-3.8403492	donnent	-0.05294095
-3.8403492	entiers	-0.05294095
-3.8403492	rassoient	-0.05294095
-3.8403492	déléguer	-0.05294095
-3.8403492	chercha	-0.05294095
-3.8403492	l'air	-0.05294095
-3.8403492	d'activité	-0.05294095
-3.8403492	biologique	-0.05294095
-3.8403492	patienter	-0.05294095
-3.8403492	heureuse	-0.05294095
-3.8403492	conduirai	-0.05294095
-3.8403492	merveilles	-0.05294095
-3.8403492	préparez	-0.05294095
-3.8403492	monnaie	-0.05294095
-3.8403492	allongez	-0.05294095
-3.8403492	l’appelle	-0.05294095
-3.8403492	prononcée	-0.05294095
-3.8403492	constitué	-0.05294095
-3.8403492	alliages	-0.05294095
-3.8403492	métal	-0.05294095
-3.8403492	matérialisèrent	-0.05294095
-3.8403492	marbre	-0.05294095
-3.8403492	docilité	-0.05294095
-3.8403492	ardeur	-0.05294095
-3.8403492	incomparables	-0.05294095
-3.8403492	nombre	-0.05294095
-3.8403492	respectable	-0.05294095
-3.8403492	signifie	-0.05294095
-3.8403492	maurice	-0.05294095
-3.8403492	piano	-0.05294095
-3.704677	mistral	-0.16572244
-3.8403492	connaissance	-0.05294095
-3.8403492	l'archivage	-0.05294095
-3.8403492	rendus	-0.05294095
-3.8403492	qu'ils	-0.05294095
-3.8403492	dominés	-0.05294095
-3.8403492	exploités	-0.05294095
-3.8403492	histoire	-0.05294095
-3.8403492	failli	-0.05294095
-3.8403492	conduire	-0.05294095
-3.8403492	l’abîme	-0.05294095
-3.8403492	tomber	-0.05294095
-3.8403492	cinquante	-0.05294095
-3.8403492	repart	-0.05294095
-3.704677	l’autre	-0.05294095
-3.8403492	pressait	-0.05294095
-3.8403492	prêt	-0.05294095
-3.8403492	éclater	-0.05294095
-3.8403492	apprendre	-0.05294095
-3.8403492	papiers	-0.05294095
-3.8403492	suffisants	-0.05294095
-3.8403492	l'environnement	-0.05294095
-3.8403492	indescriptible	-0.05294095
-3.8403492	intérieurement	-0.05294095
-3.8403492	oiseaux	-0.05294095
-3.8403492	plongent	-0.05294095
-3.8403492	poissons	-0.05294095
-3.8403492	volent	-0.05294095
-3.8403492	engagée	-0.05294095
-3.8403492	discutable	-0.05294095
-3.8403492	belle	-0.05294095
-3.704677	côté	-0.05294095
-3.8403492	soutenons	-0.05294095
-3.8403492	l’appel	-0.05294095
-3.8403492	journée	-0.05294095
-3.8403492	7	-0.05294095
-3.8403492	l’internationalisme	-0.05294095
-3.8403492	perd	-0.05294095
-3.8403492	d’idée	-0.05294095
-3.8403492	amendement	-0.05294095
-3.8403492	recevable	-0.05294095
-3.8403492	sauf	-0.05294095
-3.8403492	accord	-0.05294095
-3.8403492	s’approcha	-0.05294095
-3.8403492	regarde	-0.05294095
-3.8403492	chou	-0.05294095
-3.8403492	députés	-0.05294095
-3.8403492	élus	-0.05294095
-3.8403492	commencer	-0.05294095
-3.8403492	penser	-0.05294095
-3.8403492	fatigué	-0.05294095
-3.8403492	manqua	-0.05294095
-3.8403492	battement	-0.05294095
-3.8403492	oublié	-0.05294095
-3.8403492	essentielle	-0.05294095
-3.8403492	courrier	-0.05294095
-3.8403492	complète	-0.05294095
-3.8403492	terrien	-0.05294095
-3.8403492	objectif	-0.05294095
-3.8403492	accordant	-0.05294095
-3.8403492	crépissages	-0.05294095
-3.8403492	pieux	-0.05294095
-3.8403492	n’arrivent	-0.05294095
-3.8403492	voiler	-0.05294095
-3.8403492	vieillesse	-0.05294095
-3.8403492	mondiale	-0.05294095
-3.8403492	tournés	-0.05294095
-3.8403492	sentirez	-0.05294095
-3.704677	dont	-0.16572244
-3.8403492	nulle	-0.05294095
-3.8403492	marius	-0.05294095
-3.8403492	absorbé	-0.05294095
-3.8403492	assistant	-0.05294095
-3.8403492	procès	-0.05294095
-3.8403492	clos	-0.05294095
-3.8403492	exécutions	-0.05294095
-3.8403492	considérables	-0.05294095
-3.8403492	consentis	-0.05294095
-3.8403492	aviez	-0.05294095
-3.704677	connu	-0.05294095
-3.8403492	début	-0.05294095
-3.8403492	s’aperçut	-0.05294095
-3.8403492	très	-0.05294095
-3.8403492	tournait	-0.05294095
-3.8403492	l’égard	-0.05294095
-3.8403492	municipalité	-0.05294095
-3.8403492	rectifications	-0.05294095
-3.8403492	modérées	-0.05294095
-3.8403492	teneur	-0.05294095
-3.8403492	étendue	-0.05294095
-3.8403492	hitler	-0.05294095
-3.8403492	gestapo	-0.05294095
-3.8403492	pesait	-0.05294095
-3.8403492	lourd	-0.05294095
-3.8403492	passant	-0.05294095
-3.704677	messages	-0.05294095
-3.8403492	droits	-0.05294095
-3.704677	crainte	-0.05294095
-3.8403492	livraient	-0.05294095
-3.8403492	d’imaginer	-0.05294095
-3.8403492	triomphante	-0.05294095
-3.8403492	canaille	-0.05294095
-3.8403492	tourné	-0.05294095
-3.8403492	dos	-0.05294095
-3.8403492	n’osais	-0.05294095
-3.8403492	regarder	-0.05294095
-3.8403492	gazon	-0.05294095
-3.8403492	alentour	-0.05294095
-3.8403492	semblaient	-0.05294095
-3.8403492	bouleversés	-0.05294095
-3.8403492	soudaine	-0.05294095
-3.8403492	explosion	-0.05294095
-3.8403492	calculent	-0.05294095
-3.8403492	reviennent	-0.05294095
-3.8403492	millionnaires	-0.05294095
-3.8403492	apporte	-0.05294095
-3.8403492	boeuf	-0.05294095
-3.8403492	frigorifié	-0.05294095
-3.8403492	t’enverrai	-0.05294095
-3.8403492	moutarde	-0.05294095
-3.8403492	suspendu	-0.05294095
-3.8403492	légion	-0.05294095
-3.8403492	d'honneur	-0.05294095
-3.8403492	s’aventurent	-0.05294095
-3.8403492	bordure	-0.05294095
-3.8403492	trottoir	-0.05294095
-3.704677	beaux	-0.05294095
-3.8403492	eaux	-0.05294095
-3.8403492	écologique	-0.05294095
-3.8403492	responsable	-0.05294095
-3.8403492	strictement	-0.05294095
-3.8403492	courante	-0.05294095
-3.8403492	l’extraordinaire	-0.05294095
-3.8403492	vies	-0.05294095
-3.8403492	suintant	-0.05294095
-3.8403492	mépris	-0.05294095
-3.8403492	pensa	-0.05294095
-3.8403492	quitter	-0.05294095
-3.8403492	labyrinthe	-0.05294095
-3.8403492	premiers	-0.05294095
-3.8403492	descendront	-0.05294095
-3.8403492	cloche	-0.05294095
-3.8403492	dernier	-0.05294095
-3.8403492	sirène	-0.05294095
-3.8403492	plat	-0.05294095
-3.8403492	hausse	-0.05294095
-3.8403492	monte	-0.05294095
-3.704677	bar	-0.05294095
-3.8403492	d’innombrables	-0.05294095
-3.8403492	bicyclettes	-0.05294095
-3.8403492	toile	-0.05294095
-3.8403492	visqueuse	-0.05294095
-3.8403492	crapule	-0.05294095
-3.8403492	nourrie	-0.05294095
-3.8403492	rasée	-0.05294095
-3.8403492	fringuée	-0.05294095
-3.8403492	regardait	-0.05294095
-3.704677	ciment	-0.05294095
-3.8403492	rampe	-0.05294095
-3.8403492	l’escalier	-0.05294095
-3.8403492	dimanche	-0.05294095
-3.8403492	églises	-0.05294095
-3.8403492	édifiées	-0.05294095
-3.8403492	brûler	-0.05294095
-3.8403492	tient	-0.05294095
-3.8403492	bureaux	-0.05294095
-3.8403492	d’embauchage	-0.05294095
-3.8403492	débauche	-0.05294095
-3.8403492	débauchage	-0.05294095
-3.8403492	n’avoir	-0.05294095
-3.8403492	casque	-0.05294095
-3.8403492	colonial	-0.05294095
-3.8403492	ignorer	-0.05294095
-3.8403492	incomparable	-0.05294095
-3.8403492	gentil	-0.05294095
-3.8403492	voudrais	-0.05294095
-3.8403492	aller	-0.05294095
-3.8403492	soeur	-0.05294095
-3.8403492	barils	-0.05294095
-3.8403492	secouent	-0.05294095
-3.8403492	quadrillé	-0.05294095
-3.8403492	telle	-0.05294095
-3.8403492	carapace	-0.05294095
-3.8403492	l’alligator	-0.05294095
-3.8403492	codés	-0.05294095
-3.8403492	bbc	-0.05294095
-3.8403492	annoncent	-0.05294095
-3.8403492	parachutage	-0.05294095
-3.8403492	l'histoire	-0.05294095
-3.8403492	domination	-0.05294095
-3.8403492	anglo	-0.05294095
-3.8403492	saxonne	-0.05294095
-3.8403492	québec	-0.05294095
-3.8403492	malfaiteur	-0.05294095
-3.8403492	international	-0.05294095
-3.8403492	patron	-0.05294095
-3.8403492	langue	-0.05294095
-3.8403492	commune	-0.05294095
-3.8403492	deviendra	-0.05294095
-3.8403492	rassemblera	-0.05294095
-3.8403492	morceaux	-0.05294095
-3.8403492	d’hôtel	-0.05294095
-3.8403492	d’aller	-0.05294095
-3.8403492	ramener	-0.05294095
-3.8403492	tatoués	-0.05294095
-3.8403492	ancienneté	-0.05294095
-3.8403492	subi	-0.05294095
-3.8403492	évolution	-0.05294095
-3.8403492	renouvellement	-0.05294095
-3.8403492	partiel	-0.05294095
-3.8403492	système	-0.05294095
-3.8403492	externe	-0.05294095
-3.8403492	statut	-0.05294095
-3.8403492	décide	-0.05294095
-3.8403492	demeurer	-0.05294095
-3.8403492	activement	-0.05294095
-3.8403492	guerres	-0.05294095
-3.8403492	parlez	-0.05294095
-3.8403492	retrouvent	-0.05294095
-3.8403492	tentacules	-0.05294095
-3.8403492	l’humus	-0.05294095
-3.8403492	déroulé	-0.05294095
-3.8403492	routes	-0.05294095
-3.8403492	travers	-0.05294095
-3.8403492	jungles	-0.05294095
-3.8403492	échevelées	-0.05294095
-3.8403492	espoirs	-0.05294095
-3.8403492	matinées	-0.05294095
-3.8403492	magnifiques	-0.05294095
-3.8403492	pensait	-0.05294095
-3.8403492	comprit	-0.05294095
-3.8403492	édiles	-0.05294095
-3.8403492	égarés	-0.05294095
-3.8403492	rats	-0.05294095
-3.8403492	saletés	-0.05294095
-3.8403492	cheveux	-0.05294095
-3.8403492	pondichéry	-0.05294095
-3.8403492	promenade	-0.05294095
-3.8403492	chausserait	-0.05294095
-3.8403492	bottes	-0.05294095
-3.8403492	d’égoutier	-0.05294095
-3.8403492	pourrait	-0.05294095
-3.8403492	s’y	-0.05294095
-3.8403492	j’ajoute	-0.05294095
-3.8403492	gouverneur	-0.05294095
-3.8403492	colonies	-0.05294095
-3.8403492	débarquait	-0.05294095
-3.8403492	pirogue	-0.05294095
-3.8403492	fleuves	-0.05294095
-3.8403492	difficiles	-0.05294095
-3.8403492	échappa	-0.05294095
-3.8403492	articles	-0.05294095
-3.8403492	préparé	-0.05294095
-3.8403492	esprits	-0.05294095
-3.8403492	admettre	-0.05294095
-3.8403492	documents	-0.05294095
-3.8403492	défilèrent	-0.05294095
-3.8403492	neurales	-0.05294095
-3.8403492	désespoir	-0.05294095
-3.8403492	l'emblème	-0.05294095

\2-grams:
-0.9345091	environ </s>	0
-1.0249525	jours </s>	0
-0.71492547	an </s>	0
-0.71492547	veste </s>	0
-1.0869972	leur </s>	0
-0.71492547	glacier </s>	0
-0.71492547	mangeurs </s>	0
-1.0731922	vous </s>	0
-0.71492547	voudrez </s>	0
-1.0614417	maintenant </s>	0
-1.1093658	tout </s>	0
-1.082636	là </s>	0
-0.6330335	moi </s>	0
-1.1816447	le </s>	0
-1.1600451	plus </s>	0
-1.0919762	faire </s>	0
-0.86836994	attention </s>	0
-0.86836994	commande </s>	0
-1.0911778	nous </s>	0
-1.0276275	sortit </s>	0
-0.6426141	maisons </s>	0
-1.0097035	porte </s>	0
-0.9345091	succès </s>	0
-0.9345091	douane </s>	0
-0.5565668	père </s>	0
-0.86836994	parole </s>	0
-0.5565668	sens </s>	0
-0.62830365	hommes </s>	0
-0.9813823	l’intérieur </s>	0
-0.42319527	musique </s>	0
-0.9717845	immédiatement </s>	0
-0.71492547	courir </s>	0
-1.088346	pas </s>	0
-0.9717845	autre </s>	0
-0.52668285	chose </s>	0
-0.86836994	tué </s>	0
-0.71492547	surprise </s>	0
-0.86836994	naissance </s>	0
-0.71492547	déclare </s>	0
-0.71492547	caillou </s>	0
-0.71492547	présences </s>	0
-0.86836994	villes </s>	0
-1.0420429	nuit </s>	0
-0.86836994	signal </s>	0
-0.71492547	repos </s>	0
-1.0400013	produit </s>	0
-0.86836994	flamme </s>	0
-0.71492547	subite </s>	0
-0.6426141	eux </s>	0
-0.71492547	voyages </s>	0
-0.42319527	périssables </s>	0
-0.86836994	possible </s>	0
-1.1206326	même </s>	0
-0.71492547	l’extrême </s>	0
-0.99578893	chemin </s>	0
